811 100
</s> -0.0081194 0.0087412 -0.0064092 -0.0019857 0.0042858 0.00088868 0.0078484 0.0016389 0.0087256 0.0087358 -0.00057611 0.0047255 0.0082938 0.0071826 -0.0030056 -0.0023676 0.0009848 0.0056489 0.0010517 -0.0076243 -0.0021682 0.0083174 0.0081489 -0.0052398 0.0067253 -0.0063987 -0.00011017 -0.0019059 0.0012542 0.011965 -0.0080458 -0.0052041 -0.0078361 -0.0091948 -0.0082962 0.00061572 0.0040954 -0.0085179 -0.0024233 -0.0091264 0.011018 0.0074305 0.0030149 0.0023449 -0.0032669 0.0028551 -0.0050632 -0.0044647 -0.0087123 0.0031277 -0.006196 0.0084336 -0.0096474 0.0050361 -0.00014606 -0.0060708 0.00079304 0.00086002 0.0037298 0.0011117 -0.0045228 0.0067765 0.0055 0.0048348 -0.0019003 0.002283 -0.0091182 0.005516 0.0069471 0.0063189 -0.0097895 0.0004664 -0.0028623 0.0023809 0.0013935 -0.0028678 0.010882 0.0085045 -0.0023569 -0.002129 -0.0096958 0.0071246 0.008977 -0.010993 -0.00368 -0.0093942 0.0010185 -0.0013975 -0.00084641 -0.0025565 0.0090491 0.0051103 0.0081074 -0.0099578 0.00078171 -0.0096604 0.0075785 0.008313 -0.0037322 -0.0028445 
in 0.0023509 0.0054278 0.0081982 -0.0092582 0.0064103 0.0077258 -0.0057571 0.0019865 -0.0038612 -0.002389 -0.00027858 -0.0056437 -0.0051784 0.0022781 -0.0055803 -0.0076018 0.0036542 0.0060752 -0.0067718 -0.00040497 -0.0053563 0.010586 0.0052998 0.0073372 -0.0080613 -0.0062355 -0.010551 -0.00056012 -0.00089697 -0.0062234 -0.0057955 -0.0016636 0.0042024 -0.0074132 -0.0057725 -0.0014395 -0.0067433 0.0043232 -0.0008286 -0.0040271 -0.0093904 0.0095639 -0.0054163 0.0034554 0.0095049 0.0024711 0.0077211 -0.0032612 -0.0045618 0.0039309 -0.00047839 -0.0021004 0.001678 0.0052679 -0.0086055 0.0031335 -0.010027 -0.00011803 0.0086826 -0.0037292 0.00090506 0.004586 0.0051259 0.007768 0.0052942 -0.002852 -0.0080688 -0.0053454 -0.0063039 -0.0053494 0.0014493 0.0050606 0.0064175 -0.006716 -0.0018016 -0.0021235 -0.0033653 0.0026944 0.0060048 0.0062222 3.7884e-05 -0.0052671 0.0024307 0.0017263 0.0054149 0.0027847 -0.0018141 -0.010749 -0.0037388 0.0076467 0.0027296 0.0026444 0.0022577 0.0013306 0.0089614 0.0018355 -0.00011528 0.0021225 -0.0062276 -0.0074413 
im 0.0073749 -0.0084105 -0.00090233 -0.0034123 0.00033453 -0.007129 -0.0091044 -0.0098809 0.0099568 0.0094603 -0.010431 -0.0029957 -0.0016299 -0.0059672 -0.0031244 0.0050428 0.002241 -0.0029677 -0.0076606 0.003116 0.0073758 -0.0073051 -0.0075922 0.0023154 -0.00090073 -0.0012832 0.0056567 -0.0098937 -0.0095608 0.0012526 0.0036786 0.0078253 -0.0046737 0.0044807 -0.0090193 -0.0077893 -0.0078207 0.0087912 0.0089929 0.0094406 -0.0082618 0.004416 0.0050375 -0.00046957 0.0032035 0.0041042 0.0082526 0.0077057 0.0067088 0.0071244 -0.0019225 -0.00021789 0.0060166 -0.0061019 -0.010023 0.008383 0.0022641 -0.0077724 -0.0067833 -0.0031421 0.0089215 0.0075892 0.0071699 0.0066151 -0.0068924 0.0025729 -0.0046347 -0.0022006 0.0044333 -0.0093333 0.0073589 0.0033276 0.0030013 -0.01016 -0.0094611 0.0030813 0.008159 -0.0038648 0.009385 -0.0085296 0.0091802 -0.0031689 -0.0068177 -0.0039158 -0.0026742 -0.0060706 -0.0026481 0.01032 0.0055444 -0.0040589 -0.0063135 -0.00070301 0.0070929 -0.0024154 0.0036848 -0.00074031 -0.0027334 0.005592 0.0052639 0.0092896 
am 0.00048487 0.0075922 -0.0058769 -0.003463 0.0012606 0.008793 -0.0085622 -0.0027687 0.0074249 0.0074335 -0.0058569 0.0065102 -0.0060152 0.0042855 0.0038164 -0.004053 -0.0078257 -0.0080574 0.0074038 0.0022824 0.0098825 0.0059411 -0.004777 -9.2677e-05 -0.0090642 0.0050403 0.010435 -0.0048324 -0.014206 -0.0088956 0.0094067 0.0084988 -0.0012375 0.014268 -0.0038829 0.0049457 0.00062913 -0.0040519 -0.00076178 0.0090989 -0.00025018 -0.0010282 -0.0029388 -0.0082611 -0.0032392 -0.0062466 0.0081483 -0.0014219 0.0069023 0.005376 -0.011094 -0.005042 0.0036976 -0.0081784 -0.0037493 -0.0037235 0.0012269 0.005056 0.0044668 0.0053432 -0.011885 -0.0012994 0.0050087 -0.0080868 -0.0095236 -0.00022604 0.0044218 -0.0052389 0.00046327 -0.0054674 0.0090423 0.0022342 -0.0014702 0.0020285 -0.001989 0.0069865 0.0024975 0.0099382 0.0083833 -0.010183 0.0028856 0.00069769 0.0089827 0.0098778 0.0069637 0.003221 -0.002323 0.011101 -0.013335 -0.01039 0.001497 -0.0067858 0.0020615 0.0052692 -0.0048385 -0.0021811 -0.0018355 0.0057418 -0.0048098 0.0037915 
der -0.0042379 0.0043244 0.00027731 0.0014784 0.0095012 0.0095363 0.0036645 -0.010194 0.0058334 0.0046232 -0.00097659 -0.0054591 -0.0042839 0.0027671 0.0083083 0.001306 0.0024672 -0.0023639 -0.0059477 0.0086807 0.0087363 -0.0038041 -0.0058572 -0.0097356 0.0023645 0.0038449 0.0099952 0.0028793 0.0057569 0.0056924 0.0062697 -0.0078591 -0.0080787 -4.4442e-05 0.00029705 0.0060696 -0.009544 0.0092899 0.0060944 0.0022538 -0.0044721 -0.0026038 0.0079188 0.0088942 0.0039735 -0.010537 -0.00065938 0.0086229 -0.0011745 -0.0033812 -0.0056244 0.0055556 0.0050404 -0.00015715 0.0087608 0.0078249 -0.0046217 0.005743 -0.0094936 0.010759 0.0017822 0.00041514 -0.0037021 -0.0010889 0.0063896 0.004483 -0.0033584 -0.0087769 -0.0051017 0.0036185 -0.0039783 -0.0010853 -0.0080758 0.0063212 -0.0056025 -0.004644 -0.0075699 -0.009534 0.0050704 -0.0033629 -0.0072363 0.0011524 0.0011046 0.0049047 -0.0015571 -0.0019768 0.0021194 0.0066637 -0.0058652 0.0069153 0.0056652 0.00049584 0.0094613 0.00012138 0.0027091 0.0081815 -0.0011986 -0.0082707 -0.0071956 -0.0054901 
und 0.0094056 0.0039388 0.0062849 -0.0045406 0.0052706 0.0041298 -0.0095381 -0.0042543 -0.0076621 0.010027 -0.0010774 0.0023826 -0.0043704 -0.0014378 -0.0074285 0.004974 -0.0071704 -0.0085378 0.007084 -0.0070722 -0.0061594 0.00026711 0.0034821 -0.0039645 0.0012357 0.0065483 0.0015782 -0.0081944 -0.011616 -0.0091725 -0.0050666 0.0088593 -0.0050706 0.0026182 0.0025887 0.0043233 -0.0081728 -0.0051096 -0.0076072 0.012082 -0.0077599 -0.00073194 -0.0037164 0.0022175 0.0062258 -0.0042329 -0.0024128 -0.010157 -0.0036475 0.0073494 -0.0068067 -0.0078581 -0.008304 0.0054781 0.0029634 0.0035792 0.0029604 0.00098922 0.00054457 0.00066311 -0.010818 -0.0063585 0.009813 -0.0034818 0.0031552 0.00095703 -0.00736 -0.0062635 -0.0040593 0.0067432 -0.001822 0.0063811 0.0083142 -0.011154 -0.0044844 -0.0032374 0.0016461 -0.007302 -0.0050185 -0.0051619 0.0063481 0.0036681 0.0032468 0.012927 0.0048899 0.00063307 -0.01006 0.0036835 -0.011412 0.0086107 -0.00099949 -0.0021258 -0.0073508 0.0034301 0.0012177 0.001252 -0.010028 0.00040858 -0.007563 -0.0067712 
Zimmer 0.0070966 0.0015709 0.0083144 -0.008199 -0.004316 0.0025662 0.0076712 0.0015195 -0.0009721 -0.00095584 0.002986 0.0092033 -0.011604 -0.0094884 -0.003032 0.0061391 -0.00032036 -0.0017582 0.0011029 0.0060295 0.0054969 0.012892 0.0082272 -0.0024658 0.0047514 0.0051827 -0.0092094 0.0027469 0.0075865 0.014721 -0.010555 -0.014363 -0.0051825 -0.0063931 0.006813 0.010114 0.0065861 0.0036106 -0.0017463 -0.0056879 -0.00081889 0.007362 0.0038009 -0.0027607 0.010992 -0.00358 0.0083101 -0.0071259 -0.0034889 -0.0044395 0.0074317 0.0050805 -0.0089996 0.0022666 0.0074935 -0.0055754 -0.0034297 -0.00020107 0.0080392 -0.0086565 0.0047704 0.011968 -0.012137 -0.0096301 -0.0022368 0.0096309 -0.015039 0.0037709 -0.0035188 0.011896 -0.0085844 0.0025888 -0.0022372 -3.0369e-05 0.0041033 0.0028602 0.0028618 -0.0088962 -0.010281 0.00077384 0.0039231 0.011134 0.0026686 -0.012845 0.010669 -0.0095716 0.0093369 0.00018868 0.014803 0.0025689 -0.0019572 -0.0037233 -0.0049574 -0.003842 -0.008423 -0.010498 0.0011369 -0.0061716 0.011667 -0.011434 
- -0.0065865 -0.003977 -0.0082146 -0.0066707 0.0086048 -0.002349 -0.0047434 0.00052083 0.0013246 -0.0063719 0.0029536 -0.0092197 0.00052849 0.0093879 0.0059193 -0.00078382 -0.0055172 0.00082445 0.002057 0.0047026 0.0017856 -0.0043091 -0.0079842 0.0023027 -0.0061577 -0.0058051 -0.0039619 0.0045572 -0.0060796 0.0011701 7.1468e-06 0.0083744 0.0091579 0.0058048 -0.0099864 0.0042413 0.0076182 -0.0089929 0.008485 0.0036736 0.0045714 0.0055002 0.00047645 0.0061991 0.0043373 0.0049224 0.0078521 0.0074711 0.006877 0.0093521 -0.0069194 -0.0003126 0.0061732 0.008042 0.0018688 -0.001331 0.0008488 0.0016824 0.0057933 -0.0058962 -0.0020417 -0.0091034 0.0099615 -0.008717 -0.0072552 -0.0080955 0.0038231 -0.0024703 -0.0081313 -0.0052905 -0.005833 0.0057458 -0.0093444 0.00051371 0.0077496 0.0081695 -0.0067221 0.0068606 -0.0040451 -0.0037276 -0.0018811 -0.0047788 0.0079657 0.0093519 0.00014052 0.0099544 -0.0011463 0.0054252 -0.00045112 -0.0036314 0.0096059 -0.003585 -0.0087509 -0.0040315 -0.0095509 -0.0054265 -0.0039117 -0.0093092 0.0062532 -0.0024603 
für 0.0059597 -0.0050086 0.0083278 -0.0035591 0.0071784 -0.010115 -0.0010616 0.003485 -0.0089264 -0.0039207 -0.0081288 -0.0018435 -0.0043468 0.0097965 0.0046142 -0.0074866 0.0019016 0.0052282 0.0085697 -0.00049323 -0.0092394 -0.0018794 0.0049954 -0.0054454 0.00026998 -0.0035919 0.0082036 -0.0082063 0.010476 0.006564 0.00091769 0.0087262 0.0051221 -0.0042267 -0.0062547 0.0034398 0.0091177 0.0040445 0.0012637 0.0080233 -0.007656 -0.0094162 0.0091849 0.0075828 0.0082199 -0.0073455 0.0034434 0.0051668 -0.0038234 0.010222 -0.0030905 0.0043883 -0.0072576 0.0078835 -0.0010548 0.0067201 -0.0013112 -0.0099778 -0.0042079 0.0035152 -0.0014337 0.0028713 0.0054284 0.0097691 -0.001788 -0.005965 0.0074237 -0.0046444 -0.0054502 -0.0028424 0.003358 -0.0086848 0.002873 0.0090183 0.0098544 0.007906 -0.0056935 0.0058363 0.0078888 0.010382 -0.0022615 -0.0022713 -0.0022039 -0.0092052 0.0096554 0.0058104 0.0056077 0.001217 0.0016298 0.0027437 -0.0013708 -0.0045628 0.0081239 0.0055663 -0.0051361 -0.0029269 -0.0017136 0.0090019 0.0083535 -0.0040766 
Uhr -0.0069721 -0.0016735 0.0019837 0.006905 -0.0013875 0.0075055 0.0032186 -0.00030362 -0.0033974 -0.0063151 -0.0080968 -0.0062157 0.007274 -0.0094781 -0.0084092 -0.0051763 -0.0046542 -0.010116 0.0022844 -0.0042211 -0.0035962 -0.0043568 -0.00023727 -0.0049715 -0.0097749 -0.00015664 0.0084826 -0.0091261 0.0025903 -0.0091369 0.0042384 -0.0052355 0.0040656 -0.0020304 -0.0053808 -0.0033232 -0.0064072 0.0084448 0.0013826 0.0029861 0.0018796 0.0062683 -0.0015413 0.0028895 -0.0025151 -0.00064317 0.0052445 -0.0023515 0.00057516 -0.002307 -0.0020126 -0.0074804 0.0028279 -0.0029418 0.0044369 0.0054048 0.0041532 0.010511 0.0096457 0.0083682 -0.0068813 0.00014193 0.0011282 0.0049085 -0.0052464 -0.0084121 -0.00091926 0.0091858 -0.0025501 0.0037259 0.0039763 -0.0053683 0.00036933 0.0048056 -0.00099578 0.005048 -0.0043687 0.001523 0.0076426 -0.0029771 0.0096482 -0.0075431 0.0062183 -0.0065979 -0.0082555 0.0035586 -0.010625 0.0070548 -0.0037644 -0.0010131 0.0025625 0.0072589 0.010578 -0.0039145 -0.0083954 -0.0021212 -0.009921 0.002002 -0.0062887 -0.0090118 
frei 0.0064371 0.0031306 -0.0063604 0.0079968 0.0090137 0.0006463 -0.00038892 -3.7027e-05 -0.0015295 -0.003059 0.0096034 0.0021515 -0.0006823 0.00061021 -0.0012897 -0.0041279 0.00012656 -0.0066093 0.0091637 0.0072619 0.0018105 0.00011667 0.012335 -0.0090168 -0.0034104 -0.0077356 0.0059269 -0.0019037 -0.00065932 0.004124 0.0079851 -0.0097049 0.00010007 -0.0068384 0.0078927 -0.0061409 0.00084215 -0.00076694 -0.0020145 -0.011995 -0.0035097 -0.00097525 -0.0095849 -0.0019662 0.0082381 0.011135 -0.0032442 0.0055033 -0.0080663 0.001224 -0.0087479 -0.0049032 0.0052043 -8.8092e-05 0.0044932 -0.0082314 0.0005017 0.0080083 0.0068018 -0.0019141 0.0082798 0.0082201 0.0025934 0.0063057 -0.0022427 0.011268 0.0019896 0.00069366 -0.0059267 0.010306 0.0087193 0.0093841 0.0074256 -0.0062546 -0.0013816 -0.00091855 0.0016798 0.0072418 0.0031913 -0.0035974 -0.0038896 0.0072898 -0.0042059 -0.0060519 0.011175 -0.0084133 -0.0031899 -0.0018794 -0.0045956 -0.0013647 -0.0053478 0.0036378 0.0062331 -0.0096123 -0.01062 -0.01027 0.0071933 -0.003617 -0.0037737 0.0030079 
gesucht 0.0084012 0.008288 -0.0053025 0.0088893 -0.0044671 0.0046552 0.012793 0.0035006 -0.0096549 -0.0059789 -0.0049318 0.0040184 0.0056717 -0.00086067 0.0080505 -0.0026289 0.0013745 -0.0071992 0.00093872 0.003059 0.0014024 0.0089273 0.0061794 0.0081592 -0.0045384 0.0056752 -0.0067892 0.0078777 -0.0038593 0.008207 0.0006333 0.0050916 -0.0013298 -0.016593 0.0036209 0.003967 0.0017197 -0.0025957 -0.0020099 -0.0036446 0.0060434 0.0053318 0.0057913 0.010118 0.0074675 0.0034155 -0.0019916 0.0021179 -0.0097523 0.0090744 -0.0046099 -0.00076363 0.0014347 -0.0065045 0.011222 0.0027076 0.00063514 -0.0062204 0.0066216 -0.015494 0.010268 0.0070621 0.0050365 0.0078346 0.011291 -0.0011636 -0.0078217 0.004177 -0.0092777 0.0035792 -0.0055737 0.0010383 0.011587 0.0072589 -0.0039485 0.0048052 0.00017603 -0.0034345 0.0055324 -0.005636 0.0047811 0.0065591 -0.0076279 0.00042987 0.0091559 0.0020737 0.010199 -0.0026266 0.0064323 -0.0074025 -0.0030251 0.0095401 -0.0018559 0.0073666 0.0039306 -0.0025246 -0.0063447 -0.0042724 -0.0063163 -0.0077241 
sucht 0.0017484 -0.0055938 -0.0073358 -0.005369 0.0083578 -0.00037216 -0.0070186 -0.0014936 0.0025059 -0.0042317 -0.0007144 0.010873 0.0086455 0.0079094 0.0046176 -0.0025003 -1.1347e-05 -0.0030731 0.007996 -0.0040007 0.0072875 0.0018057 0.0085143 0.0031381 -0.0014937 -0.0075975 0.0041692 0.0105 0.01214 -0.0010241 -0.0008813 0.00035741 0.0075662 -0.0030639 -0.0071906 0.0060794 0.0099626 -0.0064282 -0.0076677 -0.0058339 0.0078964 -0.0050038 0.0083912 -0.0060982 0.0095815 -0.0062264 -0.0013046 0.0087718 -4.8461e-05 0.0022805 0.0061388 -0.010461 -0.0028546 -0.0041935 -0.0016114 -0.0069758 -0.0089339 -0.0057824 -0.0077371 -0.0085989 0.0065757 0.0097673 0.0033393 -0.0012076 -0.0057876 0.0093607 -0.011941 -0.00028229 0.0030397 -0.0042293 0.0039026 0.0067147 0.0076928 -0.0031027 0.00010362 -0.0068782 0.0049584 0.0083557 -0.00064859 0.0096308 -0.00030574 0.0037473 0.0018539 -0.00851 0.0077318 -0.0017935 0.001719 -0.0055821 -0.0014698 0.0025018 0.0011644 -0.0084621 -0.0027554 -0.010275 -0.0044658 -0.0082379 0.0070053 -0.010548 0.0019846 -0.0087069 
ab 0.0034368 -0.0035955 0.0054301 0.0069983 -0.0054128 0.0059197 0.0034947 -0.0059067 0.0080599 0.0023953 0.0024907 0.0048367 -0.0086599 0.0051267 -0.00266 0.0060941 0.0053636 0.008285 -0.0096329 -0.003262 -0.0029405 -0.0042199 -0.0046488 0.0013 0.0053584 0.0035681 0.0080864 0.0051245 0.0069651 0.0016165 0.0058147 0.00035585 -0.002466 -0.0051603 0.0080073 0.0073574 -0.0081822 -0.0087258 0.0045735 -0.0036074 0.0085451 0.001626 -0.00092885 0.0048613 0.0062581 -0.0054638 -0.008873 0.0010625 0.0039259 -0.0034494 -0.00063084 0.0074215 -0.0087973 0.0040168 -0.0095248 -0.0025064 -0.0072997 0.0041071 -0.0099464 0.0043584 -0.0086389 -0.004923 0.0026911 0.0098596 -0.0021403 -0.0055172 -0.0049708 0.0007608 0.0047235 -0.0027855 -0.0092795 0.0061155 0.0045409 -0.00079026 -0.0051066 -0.007665 0.0082019 -0.0090758 -0.0067644 -0.0015843 0.00537 0.00449 -0.0078999 0.0068349 -0.0022244 0.0070148 0.0075797 -0.0079373 -0.002906 0.005534 -0.0067192 0.0049755 0.0049242 -0.0064477 -0.0021193 0.0013919 -0.0022698 -0.0023146 0.0096552 -0.0032653 
die 0.0019534 -0.0085606 0.0023105 0.0077083 0.0061731 -0.0095786 0.0024057 -0.0036515 0.0018533 0.0034705 -0.0043406 0.0088281 -0.0095752 -0.003706 -0.0049286 -0.0027312 -0.00030396 0.0080774 -0.0050707 0.0099136 -0.0066022 0.0061278 0.00090761 -0.0064136 0.0020045 0.0050869 0.0074666 -0.0096411 0.0057801 0.0048979 -0.0043601 0.0077943 -0.0080101 -0.0068034 0.0089775 -0.0049995 0.00037799 0.0052647 -0.0057745 -0.0088554 -0.0068985 0.006268 -0.0048871 -0.00033009 -0.0018362 -0.0010896 0.0096346 -0.0056455 0.0087113 0.0028613 -0.0075866 0.0067633 -0.0030979 -0.001819 -0.0060224 -0.006386 0.00030541 -0.0028177 0.002546 0.0044788 -0.0067925 0.0024391 -0.0094581 0.0066248 0.0087835 -0.0068327 -0.00030514 0.00072035 -0.0018984 0.0030646 -0.0082048 -0.0027927 0.0041887 -0.0095948 -0.0090787 0.0092392 0.0083784 0.0079248 -0.0037692 0.008483 0.0052604 -0.0081325 -0.0013876 0.008084 -0.0024381 -0.0046801 0.0055976 0.0021035 -0.0033136 -0.0089036 0.0081792 0.0032632 -0.0052256 0.0040492 -0.0080331 -0.0093115 -0.0029994 0.00091537 0.0013486 -0.00096582 
Salon 0.0028852 0.0060793 -0.0039035 -0.0086636 0.0036856 0.0065914 -0.0070406 -0.0078334 -0.0035799 0.0069357 0.0052221 -0.0095371 0.0020842 0.0025762 0.005807 0.010366 -0.0030117 0.00030452 -0.0074116 -0.0072586 0.0091901 -0.0096647 -0.010538 0.0090784 -0.00029058 0.0035099 -0.0046988 0.0087058 -0.010808 -0.0066412 0.0048239 0.008694 0.0092111 -0.0048214 -0.0074237 -0.0066237 -0.0098131 -0.0052279 0.0013355 0.010979 -0.00092283 0.0050377 0.0097802 0.0060084 -0.0049325 -0.0086215 0.0033594 0.0098185 0.0021862 0.0074204 -0.0043645 0.0099256 0.0013198 -0.0039574 0.0051157 0.0079089 -0.0023305 -0.0062512 0.0072803 -0.0023908 0.0035139 -0.0073816 -0.006252 0.0043208 0.0052695 -0.0069487 0.010175 0.001529 -0.0056737 0.0062617 0.0072174 0.0080857 -0.01048 -0.007162 0.0074972 -0.0038847 -0.0038419 -0.008563 0.0027425 0.0016185 0.00092753 0.0091845 0.0035677 0.0041639 -0.0029695 -0.0064255 0.004187 -0.0081835 0.00020733 -0.010242 -0.0094357 0.0051676 0.0052795 -0.0030003 -0.0011257 0.0062371 -0.0050885 -0.0024907 0.0050149 0.0031108 
Blauen 0.0039006 0.0017365 -0.0038688 0.0014049 0.0036792 0.0067977 -0.0068104 -0.0043823 0.0087722 0.0052555 0.0062844 0.0054245 -0.004924 0.0044065 0.0034827 -0.0058073 0.0016479 0.0034189 -0.0061461 -0.0025055 -0.00075829 0.0052603 0.008888 0.0060178 0.00042785 0.0027296 0.0069407 -0.0014088 -0.0035408 0.0041049 0.01035 -0.0010757 0.00082852 -0.00664 -0.0099922 -0.0072701 -0.0011679 -0.0037889 0.0092448 0.00025174 -0.0077529 0.0088244 0.0059365 0.0067045 0.0037047 0.0081829 -0.00033047 0.0056132 0.0075316 -0.0012098 0.0057137 0.0026289 0.0017954 -0.0066639 -0.00094765 -0.00077926 0.0097307 -0.0022526 -0.0015936 0.001926 0.0031671 -0.01046 0.0095016 0.0022245 0.0017684 0.0037796 0.0094145 0.0017088 0.0054935 -0.0042406 -0.0041053 0.0040685 0.0086213 0.0058867 0.0056906 -0.00051155 0.0018155 -0.0025649 0.0082275 0.0051641 -0.0054603 0.00078833 0.0016311 0.0092399 0.0015512 0.0066592 -0.0095659 -0.0081408 0.0058836 0.0050316 0.0079847 0.0068084 0.0091603 0.010163 0.0037762 -0.0095673 -0.0015062 0.0058594 0.0054925 -0.0023691 
auf 0.0072249 -0.007761 0.00084921 0.002078 -0.0013292 -0.0088988 -0.0080689 0.0055212 0.0054451 -0.0087846 -0.0025016 0.0023996 -0.0062076 -0.00017014 -0.0098168 0.0099063 0.0074169 0.00034039 -0.0010227 -0.0093295 0.0047339 -0.000679 -0.0096316 -0.0044574 -0.0058087 0.007362 0.0027414 -0.0079503 -0.0024697 0.0041743 -0.0041022 -0.0032708 0.001057 -0.0030607 0.00020559 -0.0037931 0.0066161 0.0010567 0.0024138 -0.0058588 0.007121 0.0019134 -0.0028433 0.0036451 0.0030202 -0.0071333 0.0056648 -0.0052041 -0.0050692 -0.0044589 -0.0079294 0.0028973 -0.0049001 -0.0040673 0.0077454 -0.0066518 0.0045413 0.0021541 -0.0021078 -0.00066404 -0.0095274 -0.0067829 0.008091 0.0091815 -0.0036716 0.007204 0.0058068 0.0093768 -0.0021001 0.0070907 -0.0067787 0.0060001 0.0010736 0.0006216 0.00048555 -0.0090472 -0.002573 0.0078251 0.0073822 0.0081223 0.0098891 -0.0026186 -0.0019205 -0.009169 0.0035771 -0.00026483 0.001187 -0.0016611 0.0065607 -0.0085963 0.0088398 -0.0065995 0.0068763 0.0035216 0.00049407 -0.0034732 -0.0029206 -0.0020298 -0.0051446 0.0057833 
& 0.0065317 0.0075628 -0.0070184 -0.0079558 0.0016277 -0.0075757 -0.00418 0.0077261 -0.00064434 0.0041084 -0.006527 -0.0029116 0.0043874 0.008474 0.0064555 0.0068731 -0.0055658 -0.0034181 0.0029087 -0.004101 0.0027456 0.0010281 -0.0014684 0.0025603 -0.0034925 -0.002738 0.0081171 -0.010233 0.00039953 -0.0096274 -0.0030389 -0.0071335 0.0059778 -0.00346 -0.0040675 -0.0058586 0.0018421 -0.0079652 -0.0077994 0.005755 0.005011 -0.0007342 0.0011516 -0.0037782 0.00098451 -0.0098468 -0.0072971 0.0087516 -0.00093763 -0.0048811 -0.0090027 0.0092894 -0.0077645 0.0052359 -0.0082467 -0.0011965 -0.0049974 0.0095585 0.0080486 0.010165 0.007865 -0.0013795 0.0088322 0.0086655 -0.0012704 0.0021957 0.0073367 -0.0037385 -0.0071667 0.0025813 -0.0043912 -0.0010931 0.0032791 -0.001598 -0.00068321 0.0017701 0.0062136 0.00082668 0.0014108 -0.0032267 0.0057095 -0.010047 0.0052355 0.0016675 0.0078601 0.010403 1.8795e-05 0.0073248 0.0044089 -0.00057504 0.0014114 0.0074934 0.0094077 -0.0083715 -0.0070995 -0.0021109 -0.0064855 0.003557 -0.0037132 0.0043079 
den 0.003787 -0.0043378 0.0075178 0.0066425 0.0081444 0.0086222 0.0010333 -0.000808 -0.00035292 0.0041762 -0.0076042 -0.0095627 0.0027598 0.0034073 0.0018757 0.0011623 -0.0046545 -0.0061034 -0.0087413 -0.01002 0.0055806 0.0035655 0.0084928 0.0044981 -0.0054082 -0.0074265 -0.0037487 0.0064503 0.0022318 0.0024359 0.0036948 -0.00058102 0.005711 0.0067159 -0.0035318 -0.00063979 -0.0085294 0.0074476 -0.0027797 -0.0086068 -0.0017679 0.0044971 -0.007675 0.0084259 0.0050439 0.0094535 1.369e-05 -0.0086816 0.00048366 -0.008608 -0.0044916 0.0047403 0.0024445 0.00031688 -0.0051339 0.0051656 0.0069404 -0.0028774 0.0053081 -0.0081314 -0.0088482 0.00084303 -0.0090399 0.0014355 0.0043114 -0.0032293 0.0044876 0.0077801 0.002931 0.0091047 -0.0077752 -0.0020141 -0.0047477 -0.0060862 -0.0053013 -0.0019631 0.0065667 0.0060596 0.0057145 -0.0014714 0.0085382 0.0022935 0.00049946 0.00037328 -0.0090225 0.0059162 -0.0079749 -0.0011008 0.0057538 -0.0093765 0.0057922 -0.0015788 0.0063554 -0.0080224 -0.0043716 0.00043621 -0.005817 0.0078269 0.0026878 0.0064181 
LH2 0.0021968 -0.0090593 0.0050032 0.0095755 -0.0075446 0.0024986 0.0055622 0.0034486 0.0095596 -0.0021407 -0.0045445 0.0011314 0.004793 0.0061732 0.0033413 0.0062058 0.0026521 -0.0048101 0.0072805 -0.0042947 -0.0098711 -0.0022714 0.0063054 0.0010395 0.0038325 -0.0046558 -0.0024476 0.0024935 -0.0044927 -0.006919 -0.0015166 -0.0030199 -0.0047004 0.0034161 -0.008781 -0.0053197 0.0088894 0.0054085 0.0068855 0.009507 -0.008186 0.0017378 0.00070295 0.008317 0.0057008 0.0061781 -0.0046427 0.00098919 0.0039893 0.0083217 0.0041511 -0.0065045 -0.0091515 0.00070022 -0.005693 -0.0034557 0.0080777 -0.0024287 -0.0044636 0.006578 -0.0097025 0.0016594 -0.0040657 0.0053312 -0.0085715 -0.0034532 0.0035916 0.0024105 -0.0023155 -0.0066312 -0.0096427 0.0089677 0.0068248 0.0093426 -0.0066494 0.0075829 0.0058399 -0.00068229 -9.4842e-05 -0.0079918 0.0068346 0.0075789 -0.0040324 -0.0071171 0.004255 0.0017264 -0.0031043 0.0091136 -0.0018235 -0.0092283 0.0053319 0.0090164 0.0052887 0.0022012 -0.0086575 -0.0053797 -0.0028708 -0.0096343 -0.0074559 -0.0042782 
Pfleghof 0.0030769 0.007255 -0.0031378 -0.0082478 0.0023725 0.005949 -0.010704 0.0015491 -0.0062499 -0.0050166 -0.0023341 0.0077243 -0.0010666 0.0080201 -0.0048257 0.0058273 0.0045466 0.0015392 0.0097018 -0.0058946 0.0091562 -0.0095574 0.0078625 -0.00097219 -0.0012295 -0.0046623 0.0067054 -0.0046728 -0.0093328 -9.5314e-05 0.010584 0.0087682 0.0005883 0.010611 -0.00032265 -0.010558 -0.0052503 -0.0027406 -0.0083963 0.006169 0.0042484 0.0087975 -0.0025133 -0.0009069 0.0022779 -0.008446 0.0050574 0.0028582 0.0010657 -0.0091052 -0.0025944 0.0068619 0.0045606 -0.0063426 -0.0063648 -0.0030471 -0.0019902 -0.0066501 -0.00044737 0.0010049 -0.0075524 -0.0019208 0.0050442 0.0012301 -0.0098853 -0.010832 0.0068877 0.0001237 0.006671 0.0029751 -0.0093255 -0.00077031 -0.00086503 -0.00016619 -0.0053394 0.0043408 -0.010355 0.0027472 0.0016862 0.0019349 0.00082015 -0.0057345 0.0025802 -0.0055853 0.0024997 0.0099982 -0.00020085 0.0015099 -0.0058721 -0.00743 0.0077627 -0.0050636 -0.0062001 -0.0044911 0.0096218 -0.0092296 0.00057924 0.0018432 0.0071967 -0.0056215 
Schelling -0.0028082 0.0059947 0.0080719 0.0067749 -0.0082948 0.0069956 -0.00060823 0.0021351 0.0085798 0.0045382 -0.00080495 -0.0043035 0.00053169 0.0017221 -0.0077169 0.0089314 0.0062931 0.0071159 -0.0069695 0.0064201 -0.001013 0.0087616 -0.010975 -0.0023531 0.00032163 0.0041582 0.0068911 0.0073546 -0.0097014 -0.0051466 0.0072157 0.00012141 0.0095319 0.0040449 0.0038144 0.0062597 0.0065766 0.0084861 -0.0059505 0.0063276 -0.0094428 0.00061139 -0.0094782 0.0016994 0.005596 -0.00070213 0.0099104 -0.0045443 -0.0053539 -0.0085686 0.0086319 0.0094853 0.0050282 0.0082291 -0.0030608 -0.0084758 -0.0041739 0.0089267 0.0078856 0.0035245 -0.0045488 -0.0012135 -0.0055198 0.0055631 0.00355 -0.010079 0.010917 0.0010036 0.0072581 0.0017568 0.0041399 -0.0032469 -0.0083305 -0.0085608 0.00073344 -0.0042672 -0.00095481 -0.0091155 -0.0018908 -0.002156 -0.0023157 0.0029931 -0.0024768 0.0034622 -0.010432 0.00077018 0.0094409 -0.0020369 -0.0013652 -0.0080277 -0.0041584 -0.0089465 -0.0011315 -0.0072593 0.0054201 0.004238 -6.2546e-05 0.0009583 0.0043743 -0.0090402 
mit -0.0052003 0.0045921 -0.0021888 0.0084167 -0.0020306 0.00925 -0.0062207 -0.005969 0.0042666 -0.0071978 -0.0016529 -0.0067894 0.0034736 0.0097476 -0.0084778 0.0083948 0.0072419 -0.0082769 -0.0080651 0.0040139 -0.0014456 0.0021216 -0.0073995 0.00033733 -0.0095414 -0.0050218 -0.0089893 0.0028357 0.0010421 -0.0051952 0.0061881 -0.0089933 0.0071811 0.0075431 0.0070886 -0.0098418 0.0074644 0.00711 -0.0050488 0.0035505 -0.0087047 -0.0083143 -0.0021534 0.0045069 0.0022146 0.0077527 0.0063305 0.0028957 0.0083879 -0.010198 0.0087882 0.0051998 -0.0027327 -0.0042797 -0.007861 -0.0049289 -0.0037768 0.0048635 -0.0018901 0.0082873 0.0070183 0.0079839 -0.0035626 -0.0041182 -0.004932 -0.0033421 -0.0062549 -0.0020922 -0.0067238 -0.010208 0.0044314 0.0046665 -0.0029409 0.00097049 0.00023402 -0.0014042 -0.0020316 -0.0093197 -0.0039519 0.0054628 0.00035005 -0.0060326 -0.0051213 0.0088113 0.0059009 0.0098049 0.00060232 0.0080788 -0.0066185 0.0085657 -0.0027721 -0.004205 0.0089603 -0.0022456 0.003561 0.0065605 0.0093697 0.0059266 0.005154 0.00785 
zum 0.0056377 0.0025168 -0.0093558 0.0020692 0.0048617 0.0015349 -0.0045741 -0.0054335 0.0022007 0.0072242 -0.0075533 0.0024331 -0.0016462 0.0012392 0.0021613 0.0079801 -0.0036254 0.005279 0.0043778 0.0011601 0.0033591 0.001264 0.00088763 -0.0037824 0.0069837 -0.0011284 0.0059222 -0.0033413 -0.0063229 0.0095321 -0.0019557 -0.00069649 0.003545 0.0073785 -0.0035685 0.0051577 0.0019828 -0.00010101 -0.0028342 0.0024971 -0.0021517 -0.0069202 0.003052 -0.0060576 -0.0039642 -0.009368 -0.0061541 -0.0032346 -0.0071036 0.00050235 0.0080059 -0.0046177 0.0059613 -0.0084231 0.0042779 0.0079097 0.0097747 -0.003931 0.0087344 -0.0036285 0.0038092 -0.0029585 -0.0032253 0.0081454 -0.0041584 0.002541 0.0065995 -0.002739 0.0092099 0.0096869 -0.0065769 0.0056301 -0.0026996 0.0041712 -0.0078051 -0.0096499 -0.0056549 0.0061069 0.00014935 0.0041226 -0.0036475 -0.0024949 -0.0079119 -0.0065738 -0.0018676 0.007037 0.0032503 0.0046178 -0.0046142 0.0043877 0.0099509 0.0011978 -7.8208e-05 -0.0033944 0.0060009 -0.0096461 -0.0034499 -0.008578 0.00042659 0.0051298 
Konzert 0.0045735 -0.0060539 0.0033378 0.0074046 -0.0067078 -0.0083292 -0.0090367 -0.0037142 0.0089242 -0.0058614 -0.0062866 0.0076917 -0.0071789 -0.0085439 -0.0092698 0.0095595 0.0021603 -0.0076971 -0.0082285 0.0068718 0.0024405 8.4764e-06 -0.0030279 -0.0039236 0.0021914 0.0020936 0.0047401 -0.011044 -0.0095953 -0.0020548 0.0099522 -0.002331 -0.0084942 -0.0029367 -0.010888 -0.0058785 -0.0091379 -0.0093763 0.0039507 0.0040528 -0.0080884 0.0042377 0.0037282 -0.0020947 -0.010644 0.0058357 -0.0039916 -0.0084085 -0.003915 -0.0069658 -0.0054714 -0.0030406 0.01014 0.0075142 0.0020888 0.0091661 -0.005863 0.00086724 0.00078738 0.0038734 0.004825 -0.011575 0.0013809 0.0024533 -0.011319 -0.010925 0.0099249 0.0034799 0.003573 -0.0049636 -0.0079732 0.0041708 -0.00088355 0.0062842 0.0022549 0.001879 -0.0007353 0.0054101 -0.0017836 -0.001875 -0.0031023 -0.0087975 -0.00017744 0.00238 -0.0070841 0.0070577 -0.004787 -0.0001063 -0.0093604 -0.0094938 -0.0086667 -0.007319 -0.0078978 0.0049134 0.001336 -0.0083748 -0.0063236 0.00064222 -0.0085671 -0.0002768 
Lu15 0.0010381 -0.0012347 0.0021572 0.0088928 0.0036439 0.0045467 -0.0011259 -0.0066284 0.00048734 0.002656 0.003232 0.00056028 -0.0027442 -0.003717 0.0009014 -0.006962 -0.0053215 0.0095394 0.0021216 -0.0037616 -0.0022638 -0.0044572 -0.0071996 0.0085476 -0.0077347 -0.0056844 -0.0054195 -0.010207 -0.0021342 -0.0078704 -0.0087241 0.0012931 0.0071928 0.0073706 -0.0058498 0.00039601 9.9203e-05 -0.001407 -0.00016598 0.0071582 -0.0022247 0.0067302 -0.0040425 0.0060651 -0.01002 -0.0017262 0.001208 0.005111 0.010381 0.0087103 -0.0096008 0.0032272 0.0014771 0.0061797 0.0059267 -0.0076635 0.00065841 -0.0076459 0.0065106 0.0002302 0.0054924 -0.0055273 0.0092798 -0.0010665 0.0070476 -0.0032846 -0.00059654 0.0083912 -0.0051383 0.0013039 -0.009245 -0.0095766 0.0078681 -0.00092305 0.00086937 0.0028473 0.0079804 -0.0092313 0.010026 0.0024691 -0.0013766 0.0014791 0.008584 0.0027261 0.0027605 0.00016423 0.0079394 0.0065336 -0.0058553 -0.0025452 0.0042964 -0.0090755 0.0092906 0.0085164 -0.0005839 -0.0082973 0.0007868 0.0017201 -0.0047385 0.007026 
WG -0.0056874 -0.0076082 -0.0023141 0.0012144 0.0085753 0.0075427 0.0089833 0.0020166 0.0011438 0.0088519 -0.0023716 0.0064859 -0.0082475 -0.0020852 -0.0084591 -0.0092656 0.0011773 -0.0088864 0.0012114 -0.0045361 -0.0036892 0.0049832 0.0064426 0.00057562 0.0054118 0.0055646 -0.0044675 0.0029831 0.0004236 0.010966 -0.0027309 0.0063496 -0.0087767 -0.0082633 0.0093833 -0.0027673 -0.0062883 -0.0057535 0.0062268 -0.010143 -0.0072867 -0.00042331 -0.0032363 0.0084515 0.0021225 -0.001292 -0.0065011 -0.0059083 0.0059994 0.0054854 0.0098491 -0.0077208 0.00083148 0.0052941 -0.007584 -0.0085424 -0.0091653 -8.521e-05 -0.0070687 0.0070664 0.01169 0.011021 -0.0042929 -0.0091633 8.4237e-05 0.0044949 -0.0032993 -0.0065884 -0.010234 0.0094229 0.0093224 -0.0057966 -0.0075505 -0.0007426 -0.002355 0.010495 0.0094742 -0.0067996 -0.010218 0.0082429 0.0080652 0.010239 0.0072498 0.0066229 0.0055282 -0.0016657 -0.007765 -0.0041869 0.011426 -0.0070005 -0.005008 -0.0010554 0.0021057 0.0080534 0.0051274 0.0012614 -0.0085396 0.0021193 0.0044516 -0.0075711 
Mai -0.0025856 0.0098905 0.0079769 0.0052451 -0.0032944 -0.0058891 -0.0019614 0.0066492 -0.0044109 0.0022321 -0.0019172 0.0030601 0.0013033 -0.0042357 0.005176 0.0043323 0.0072897 -0.001544 -0.00013954 0.00075073 0.0019866 0.004055 -0.0044916 -0.0017887 0.00074681 -0.0054549 0.005045 0.0028547 -0.00018221 0.0039806 0.00011996 0.0007954 0.0089271 0.0044033 0.0034893 -0.006899 -0.0021957 -0.0051458 0.00081429 -0.0098137 0.0079476 0.0066492 -0.0014215 -0.0030942 -0.0044791 -0.00014842 0.0076301 -0.00081833 0.0040887 0.0027103 0.0076941 -0.0072793 0.0090607 0.0064333 -0.004418 0.0070785 -0.0056118 -0.0082888 0.0025556 0.001018 0.0045704 0.002215 -0.0095286 0.0093502 0.0079686 -0.0073744 -0.005384 0.0051792 -0.0053688 -0.0064128 0.0047509 0.0098624 -0.0084386 0.0048012 -0.0045501 -0.0010279 0.0091353 0.0072914 -0.0063648 0.0057036 -0.0071125 -0.006325 -0.00038789 0.0042333 0.0037272 -0.00066318 0.0026276 0.00046254 -0.0088815 0.0094741 -0.00021405 -0.00011852 0.0084955 0.0043622 -0.0081013 0.0070799 -0.0092735 -0.0094508 0.0067329 -0.0092008 
session -0.0019501 0.0083592 -0.0069041 -0.0074236 -0.0032044 0.007069 0.0010133 0.00031764 0.00047918 0.0034394 0.003471 0.0062577 -0.0074612 0.0031446 0.0065007 -0.0052706 -0.0044612 -0.00081953 0.003593 -0.0009309 -0.0072838 0.0013796 0.0029006 0.0050592 -0.00045915 -0.0024532 0.0098986 -0.00069546 -0.0017975 0.0063571 -0.0063001 0.011041 0.00031194 -0.0036001 0.0077671 0.0012599 -0.0035253 -3.7076e-05 0.0044479 -0.0014588 0.0042523 0.0047303 0.0024091 0.0076867 0.00075632 -0.0059172 -0.004432 0.0044449 -0.0033446 -0.0036151 0.0037601 0.0046331 -0.0039447 -0.0024482 -0.0078615 0.00023578 -0.008074 0.0032028 -0.0036806 0.0086072 0.0019927 -0.0083545 0.0049233 -0.00064966 -0.010337 0.0047527 0.0065069 -0.0074613 -0.00034313 0.003369 0.0037502 -0.0090928 -0.0064628 0.001683 0.003034 -0.0051465 -0.0059579 0.0093581 -0.0072458 -0.0098965 -0.0039932 0.0039073 0.0019026 0.0030881 0.0057017 0.00083253 0.0091983 0.0072155 0.0029085 -0.010286 0.0090231 -0.0008824 -0.0010939 0.0073644 -0.004452 0.010017 0.0052133 -0.0087605 0.0046822 0.0045395 
Treffen -0.0036369 -0.010173 0.0070318 -0.0050679 -0.0058785 -0.0088125 -0.0065189 -0.0041018 -0.0081237 0.0051836 0.0017201 -0.0092836 0.0087775 0.0027687 0.0056024 -0.0088994 -0.0059201 0.005462 -0.0085812 0.0081498 0.00025754 0.0068781 -0.0058668 -0.0073883 0.0023278 0.0013824 -0.0025902 0.0021668 0.0057328 -0.0010192 -0.0084503 0.0074822 0.0035411 0.0089578 0.0092277 2.5999e-05 0.0019989 0.0048673 0.0079952 0.0093187 -0.004234 0.0014458 -0.007396 -0.0042454 -0.0014492 -0.0053986 0.002885 0.0040335 0.0097417 -0.0041726 0.0073429 -0.0052405 0.00081566 -0.0044831 -0.0054376 0.0048277 -0.0027694 0.002967 0.0073407 0.006822 0.0069603 0.00091739 -0.0021372 -0.0042856 0.005412 0.0051731 0.0089204 0.00032734 -0.0065715 -0.0054318 0.0040042 -0.0017091 0.0049047 1.7242e-05 0.00027123 -0.00010761 0.002088 -0.0074111 0.010001 -0.0096728 -0.0065401 -0.0074971 0.0039573 -0.0026614 0.0074629 -0.0017384 -0.0088525 0.0029339 -0.0072548 -0.0066796 -0.0043614 -0.0065725 0.0065938 -0.0076444 -0.004019 0.0098719 -0.0044577 -0.0078093 -0.0050972 -0.0094945 
Do. -0.0060405 -0.0096802 -0.0041461 -0.0020842 -0.0089972 -0.0067814 0.004807 0.0035047 0.0089122 -0.0037533 -0.0037537 -0.00076412 -0.0050853 -0.0060305 -0.0056033 -0.0053361 -0.0090806 -0.00010924 -0.0069592 -0.0045784 -0.0068597 -0.00758 -0.0084562 0.0050272 -0.00045896 -0.0050492 0.0061794 -0.0028612 -0.003342 0.0080831 0.0086106 -0.0039682 -0.0008366 -0.0049804 -0.004618 0.0016221 -0.0064293 -0.0070095 0.0044202 0.0098447 0.00086614 -0.004414 0.009722 -0.0066885 0.0029788 -0.0026944 0.0036661 -0.0095611 -0.0038149 -0.0085492 0.0086914 0.0015717 -0.00013833 -0.0087863 -0.0022242 -0.0011634 4.3428e-05 0.0046366 0.0061831 3.2786e-05 -0.010551 -0.0015248 -0.0046017 0.003065 -0.0099047 0.0025276 -0.0042407 0.0074061 -0.0088287 -0.008197 -0.0014275 0.0096981 0.0081217 -0.00055011 0.0023484 -0.0069595 -0.0016562 -0.0012639 0.0024051 -0.0079237 0.0086247 0.0031011 -0.0066366 0.0092838 0.0033454 0.0066053 -0.0052862 0.0062424 -0.010824 0.0062003 0.0050609 -0.0061956 -0.0012009 -0.0095035 -0.0037375 0.0084864 -0.0047999 0.0098797 -0.0098432 0.0096441 
von 0.0066508 -0.0040503 -0.0074322 0.0066168 0.0077915 0.0034511 0.0031688 -0.0058028 -0.0069167 -0.0061012 0.00095322 0.0060209 -0.0084816 -0.0032797 -0.0083284 0.0066705 -0.0091247 0.0039305 0.0055549 0.0093409 0.0034754 0.0080628 -0.0039669 -0.0089476 -0.0068441 0.0034102 0.0088272 0.0051351 0.0091486 0.0015709 0.009137 0.0061573 0.0011264 -0.0040912 0.00011716 0.0038397 0.003905 0.00010498 0.0029887 -0.0065825 0.0015335 0.0034688 -0.0011037 0.0064392 -0.0086917 -0.0081431 -0.0034496 -0.0048122 -0.0036439 -0.0089115 0.00044129 0.00090956 -0.0060986 -0.0034831 0.006296 -0.0098724 -0.003184 0.01001 -0.0010878 0.0028455 0.0066376 -0.0043962 0.0037821 -0.0017032 0.0048786 0.0027743 -0.0059527 0.0010308 0.0077261 -0.0030813 0.0078169 0.0036394 0.0084686 0.0050256 -0.0096828 -0.0090237 0.0090454 0.0042951 0.0071002 0.0054699 -0.0028305 0.00080709 0.0058036 0.0073028 -0.0057361 0.004917 0.0019154 -0.001215 0.0065555 0.0011119 -0.009666 -0.0090754 -0.0068319 -0.0089363 0.0033551 -0.0046435 8.3164e-05 -0.0055806 0.003882 -0.0022157 
+ 0.00011409 -0.0030737 0.0041906 0.00071268 0.0051283 0.0016777 0.0060262 -0.008202 -0.0066625 0.0034681 0.0076022 -0.00093261 -0.0034259 0.0011934 0.0094237 0.00041687 -0.0080165 -0.0054448 -0.0064739 -0.0049324 0.0068807 0.0040275 -0.0039395 -0.0057113 0.0045739 0.0050784 -0.0039537 -0.008391 0.0041827 0.0030345 0.0075664 0.0043873 -0.0077925 0.0062171 -0.0061612 -0.0085642 -0.0074358 0.0099343 0.0029643 -0.0091361 -0.0057781 -0.0064335 0.0016314 0.0031439 -0.0052813 0.0023002 0.0044683 0.0070843 0.00083942 -0.00010357 0.0096219 -0.0029682 -0.0029605 -0.00045197 -0.0074844 0.006944 -0.0043404 -0.0039341 0.0068526 0.0093291 -0.0091548 -0.0038485 -0.00038166 0.0029207 -0.0044025 -0.0015892 0.006111 0.0014508 -0.009244 0.0031823 -0.0068305 -0.0040829 0.0090958 0.0025062 -0.0071945 -0.0062663 0.0021738 -0.0081226 0.010055 -0.010351 0.0014456 -0.0069048 -0.0020631 -0.0085672 -0.0064773 -0.0070942 -0.0037077 0.0024069 0.0068742 -0.0050629 -0.0070608 -0.0046854 0.0075594 0.0034221 -0.003795 -0.0047729 -0.005302 0.0090557 -0.0080216 -0.0033898 
– 0.0083025 -0.0070301 -0.00052014 -0.0043144 0.0086504 -0.0030868 -0.00057077 0.0072524 -0.00036348 -0.0036775 0.0087987 0.0074427 0.0079857 -0.0042934 0.00088703 0.0085588 0.0082538 -0.0048968 0.006311 -0.0046497 0.0024652 -0.0012182 0.00075493 0.0016279 -0.0087484 0.0014419 -0.0003087 -0.0017634 0.0079389 0.0031595 -0.0043104 0.0033924 -0.0098153 0.0089047 0.00072348 3.89e-05 0.0033828 -0.0059423 -0.0067493 0.010664 0.0037673 0.0015471 0.0078733 -0.0083351 -0.0070639 0.0057453 0.0068032 0.00069832 -0.0056847 0.0058626 4.0704e-05 -0.0029456 -0.0050106 0.0019516 -0.0090712 -0.0037343 0.0046006 0.0088021 0.0022616 0.0079742 -0.0028878 0.0038384 -0.00296 -0.00092213 0.004063 0.0010651 -0.0056667 0.008111 0.0085339 -0.00063157 -0.0075315 -0.0097307 0.0040251 -0.0034847 -0.0020094 -0.010167 -0.0084791 0.0094942 0.0079631 0.003073 0.0010483 -0.0084247 -0.0043777 -0.0018517 0.0053176 0.006417 -0.00052597 0.004673 -0.0045362 -0.00073257 -0.009737 -0.0044988 0.0014272 -0.00063427 0.0028828 -0.0044206 -0.0058375 0.0023699 -0.0076404 -0.00076365 
INPUT: 0.0067963 -0.0058825 0.0044856 -0.0019734 0.0032306 0.0092161 -0.0025507 0.0029903 -0.00050231 0.0039727 -0.0063346 0.00012913 0.0042101 0.008212 0.0043444 0.0092198 0.0051801 -0.0080148 -0.0041034 0.0062877 -0.00072963 -0.0099547 -0.0060246 0.0041027 0.0060735 -0.0046793 -0.00558 -0.0038571 0.0023587 -0.0026163 0.0063325 -0.0061927 0.002403 0.010115 -0.0066176 -0.0072401 0.0073683 0.0021954 -0.0049452 -0.0069994 -0.0091285 0.0080304 -0.0039406 -0.0059997 0.0056936 -0.0088266 -0.0081964 -0.0049844 0.0094669 0.0064236 0.0049624 0.0090058 0.0029782 -0.003542 -0.0088956 0.0059627 -0.0064729 0.0059744 -0.0071571 0.000648 -0.0021415 -0.0055414 0.0051853 -0.0017104 -0.0070261 -0.0095861 0.0093098 0.0080693 -0.0033928 -0.0044233 -0.0048529 -0.0096215 0.0024069 -0.0022315 0.0092824 0.0095108 0.0058365 -0.0032852 0.0054144 0.00085588 0.0055898 -0.0086997 -0.0060251 0.0057963 -0.007704 0.0058008 0.0083278 0.0045772 0.0017159 -0.0015974 -0.0053873 -0.0026893 0.009733 -0.0011079 0.0058444 0.0062822 -0.006983 0.0062406 -0.0076511 -0.0071111 
zur 0.0054809 -0.0080633 0.0079957 -0.0052245 0.0083081 0.0090255 -0.0043866 0.0066694 0.0051932 0.0098546 0.0054957 -0.0023878 0.00050002 -0.0022415 -0.0045401 0.0048443 0.0064463 -0.0093015 -0.0083466 0.0067853 -0.0054275 -0.0054753 0.0063793 -0.0062031 -0.00057793 -0.0051024 0.001872 -0.0016004 -0.00797 0.0032375 0.0050272 0.0025117 -0.0054585 -0.002165 0.0012019 0.0027596 -0.007335 -0.0085324 -0.0046478 0.0018663 -0.0017196 -0.0071287 -0.0017969 -0.0060002 -0.0023704 0.0094845 0.0038128 -0.0014018 0.0078308 0.0091401 0.0099273 0.0076086 -0.0054314 0.006974 0.0019604 -0.0028922 -0.0068318 -3.6864e-05 -0.0031819 -0.0098039 0.0041295 0.0029853 0.008788 -0.0097524 0.0078756 -0.0078548 -0.0089599 0.0043316 4.5492e-05 -0.0088688 0.0023171 -0.0020872 -0.00843 0.0059492 0.0008731 0.0072236 -0.0024981 -0.0075042 0.0035773 0.0091986 0.0081634 0.0080255 -0.00067136 -0.0090472 -0.0042438 -0.0086435 0.0093744 -0.0081899 -0.0020819 -0.0031106 0.0010787 -0.0083593 -0.004659 0.0035263 0.0025656 -0.0019713 0.0078654 -0.0040964 -0.0091814 0.0059481 
Zwischenmiete 0.0016656 0.0055869 0.0049874 -0.0020096 -0.0063237 0.0090287 0.0039729 0.003864 -0.0042807 0.00086885 9.2523e-05 0.0077904 -0.010544 0.0030692 -0.0088395 0.0057709 0.0077995 -0.0035076 -0.0033179 -0.0057827 0.0070232 0.006459 -0.0036615 0.0029044 0.0092579 -5.3548e-05 -0.0095788 -0.0035424 0.0019806 -0.0058967 -0.00038887 -0.0074252 0.00021366 -0.0061875 -0.0044451 -0.00049103 0.0067635 0.0049737 -0.0071281 -0.0023675 0.0066306 0.0069389 -0.0018621 0.0084821 0.0061778 0.0070286 -0.0089287 -0.0060691 -0.0092351 0.0012129 0.0059009 -0.010299 -0.0074757 0.0013776 0.0021304 -0.0043877 -0.0068245 0.0012022 0.0055074 0.0026156 0.0069321 0.010648 0.0022342 0.00065326 0.0068292 0.0012078 0.0027517 -0.0037257 0.0055311 -0.0034267 -0.00027768 -0.0050382 -0.0060597 0.0071816 -0.00017592 0.0073558 0.0067383 -0.0070618 0.0038469 0.0020645 -0.0096562 -0.0070892 -0.0068006 -0.0081025 0.0065089 -0.0025631 0.0089535 -0.0058643 -0.0041974 0.0047576 -0.0084351 0.00033111 0.00088264 -0.0014028 0.0025608 -0.004146 -0.0016916 0.0084957 0.0087006 0.0024606 
Österbar 0.00048311 0.00039837 -0.0080883 -0.0086087 0.0010415 0.0026377 -0.0015661 -0.0048387 0.0050053 -0.004372 0.0046818 0.0062476 -0.0002095 0.0054314 -0.0097091 -0.0049356 -0.0092284 -0.0090934 -0.00027063 0.0063319 0.0086138 -0.00039047 0.0062029 -0.0041102 -0.0028025 -0.0098308 -0.00076808 0.00024054 -0.0031858 0.0039645 -0.0061732 0.0093745 -0.0087376 0.0063487 -0.0040103 -0.0060621 0.0021564 0.0017584 -0.0073383 0.0072245 -0.0021056 -0.008806 0.0057107 -0.0031016 -0.003502 -0.0060744 0.0044298 -0.0011608 0.0017513 0.0084853 -0.0050434 -0.0047315 0.010265 -0.010568 -0.010691 -0.0042492 0.0026285 0.0066118 -0.0092301 -0.00058509 0.0026269 0.0029085 0.00035407 -0.0039818 -0.0049641 0.007599 -0.00013078 -0.0011608 0.0047242 -0.0022718 0.0057288 0.0094906 -0.0013882 0.0041862 -0.0057433 -0.0032261 0.0017231 -0.0031063 -0.004136 -0.010896 0.007471 0.0021176 0.0048602 -0.0035559 0.0034148 0.0034222 0.00083086 -0.0075017 -0.0040075 0.0021276 0.0050968 -0.0037769 0.010086 3.7254e-05 -0.0022166 0.0019462 -0.0085027 0.0033087 -0.0040971 -0.0078929 
jam -0.0044392 -0.0024492 0.0042496 -0.0069482 0.0078801 0.0055322 -0.005561 -0.0030042 0.0015482 0.0087221 0.0079589 0.0078608 -0.0073025 -0.0036909 0.0067355 -0.0045954 -0.0011882 0.0036735 -0.0052127 -0.0058107 0.0092868 -0.0052223 0.00042202 -0.008248 0.00014358 0.0050929 0.0073776 0.0087816 -0.0046569 0.0085497 0.0045852 0.010834 -0.0058209 0.01109 0.002435 0.00031574 0.0085508 0.0059435 -0.0066553 -0.0076818 -0.0043138 0.0072011 -0.0067812 -0.0023492 0.0066897 -0.0011118 0.0027008 0.0039805 0.0013252 -0.00062502 -0.0071606 0.0054047 -0.0018942 -0.0035295 0.0028235 0.0047404 0.010433 -0.0044749 0.0098632 -0.00053132 -0.011061 0.003916 0.0053853 0.0028973 0.0062856 -0.0069258 -0.00046168 0.0055568 0.0086041 -0.0086945 0.00056012 -0.0059505 -0.0046085 -0.0031734 -0.0059612 -0.0095274 -0.0095337 0.0053057 0.0011079 0.0043293 0.0038752 0.0047347 -0.0025349 -0.0061809 0.0072472 -0.0048907 0.0079116 0.0068706 -0.0091776 0.0023478 -0.0088854 0.00247 -0.0026493 0.0082421 -0.0046303 -0.0091213 -0.0027358 -0.0007478 0.0081975 0.0039576 
Atol 0.0096362 -0.0023852 -2.6127e-05 0.0046912 0.0017152 0.0046816 0.0021496 0.0035291 0.007563 -0.003305 0.0033007 0.0057596 -0.0065744 0.0057877 -0.0072623 0.0049145 -0.003081 0.0055055 0.0012824 0.009305 0.0025068 0.0056913 -0.00011292 -0.0038542 -0.0087653 0.0066416 -0.0093258 0.0014856 0.0010385 0.0024167 -0.0064566 0.0096828 -0.0028445 0.0012813 -0.002359 -0.0058297 0.0029193 -0.0096656 0.00010233 0.0084813 -0.0064893 -0.0074716 0.0092455 0.0028195 -0.010375 -0.0040857 -0.0052913 0.00035019 -0.0075101 0.0019941 0.0044092 -0.0079141 0.005823 0.0029443 -0.0010629 -0.0094879 -0.0031914 0.003907 -0.0048777 0.0040038 0.0013344 0.002744 -0.0041488 -0.0078191 -0.0086496 -0.0032191 -0.0032579 0.0042325 0.006912 0.0065292 0.0017429 0.0057719 0.0024134 0.0043006 -0.010314 -0.0093833 0.0094934 0.0090667 0.0014818 0.0011597 -0.0087803 -0.0055208 -0.0054981 0.0046244 -0.0022307 0.010404 0.0060382 -0.0068157 0.00022143 -0.0064281 -0.0012124 -0.0074613 -0.0032774 -0.0049381 0.0052253 -0.0076314 -0.0060541 0.00012439 0.0022282 0.0079226 
Wohnen 0.00019354 8.8875e-05 -0.00076381 -0.0038217 0.0081938 -0.0069783 0.0032348 0.0079663 -0.0063578 -0.0036276 -0.0091748 0.0086708 0.0015311 -0.0093818 0.0091579 -0.0093223 -0.0057834 -0.0095211 0.0061708 0.0055689 0.0069595 0.0011486 0.0035592 0.0089353 0.0017994 -0.0036649 0.0024993 -0.0032031 0.0070125 -0.0078382 0.0097169 0.0046272 -3.041e-05 0.0034532 -0.0039407 -0.0023703 -6.7343e-05 -0.004032 0.0012146 0.0023276 0.001734 -0.0032239 -0.0014995 -0.0065281 0.0037555 0.0011908 0.0023719 -0.0066801 0.0097537 0.0079314 -0.0081592 0.0011602 -0.0052596 -0.0069187 0.0058611 -0.010074 0.0018802 0.0073293 -0.00037422 -0.00089074 0.00059443 -0.0075046 0.0097449 -0.0072564 0.00088854 0.0040603 0.0025675 -0.0073505 0.0068946 -0.0070779 -0.0072537 -0.0080942 4.3558e-05 0.0080942 -0.0098227 0.0010997 -0.0017817 0.005706 -0.0060797 0.0063415 0.0057198 -0.0060104 -0.0035975 -0.00045453 -0.0053181 -0.0072059 -0.0049904 -0.003036 -0.0074443 0.0053437 0.0013377 -0.0071745 0.006898 -0.0077859 -0.0042579 0.0025974 -0.0029339 -0.008422 -0.0088186 -0.0014092 
@ -0.0088648 0.0004571 0.0075529 0.002194 0.0022312 0.0087808 -0.0054747 -0.0043677 0.010166 -0.00029458 0.0043086 -0.0014688 0.0060752 -0.0007445 -0.0099428 0.0063225 -0.0021365 -0.0091172 0.006521 0.00043141 -0.0019219 0.0084296 0.0055911 -0.0051529 -0.0091499 0.0080551 0.0088546 0.0022007 -0.01084 -0.0034904 0.0083509 0.0064165 -0.0060747 -0.0069311 0.00026219 -0.00080256 0.0066707 -0.001451 0.0039323 -0.006691 -0.0016174 -0.004281 -0.0047735 -0.0064652 0.0042985 -0.00787 0.010206 0.0045024 -0.0079137 -0.0018157 -0.0060128 -0.0048054 -0.00060682 0.0086052 -0.00073129 0.0026534 -0.0079506 -0.0079063 0.0077259 -0.0086297 -0.010131 -0.0047846 -0.0045605 0.0041352 -0.0090031 -0.000516 -0.0021539 -0.0025321 0.0053018 -0.0065783 0.0089271 0.00069772 0.0031099 0.0022655 -0.0087157 -0.0093467 -0.0028609 -0.0084562 0.0071635 0.0022713 0.0081214 0.0081787 0.0067062 -0.0064537 -0.0080263 0.0027347 -0.0086249 0.0029835 -0.0010654 0.0095355 0.0042571 -0.0061597 -0.002739 -0.0089286 0.0039557 0.0033327 -0.0014718 0.0068665 0.0065038 0.0038671 
1. -0.0023834 -0.0013189 0.0019893 0.0020292 0.00036135 0.0058602 -0.0054096 -0.0098013 -0.0081981 -0.00066354 0.00059683 -0.0094019 -0.00063349 -0.0073015 -0.00090336 -0.0097052 -0.0070269 0.0012872 0.0048565 0.0026957 -0.0013482 -0.0046055 0.0050901 0.00078926 0.0076122 -0.0064871 -0.0053939 -0.0094017 0.0058553 -0.01003 -0.0034599 -0.0067288 -0.008575 -0.0052215 -0.0082296 0.00023937 0.0017482 -0.0084141 -0.0049276 0.0012862 -0.0063344 -0.0036772 -0.0097896 0.0091639 -0.0040867 -0.0089613 0.0099725 -0.00089081 0.0031898 0.0017898 0.0071851 -0.0065471 0.008699 -0.0019196 -0.0083039 -0.006797 0.0041655 0.0084458 -0.0082571 -0.0012651 -0.010533 0.0016309 3.3592e-05 0.0062009 -0.0078681 0.0094163 -0.0076877 0.0063721 -0.0053278 0.004548 -0.0028618 -0.0032151 0.0024482 -0.0069538 -0.0010802 -0.0075176 0.0067235 0.0069739 -0.0049163 0.0072958 -0.0011747 -0.0064114 -0.0028878 -0.0089364 -0.0067414 -0.0079385 -0.010108 0.0047632 0.0085619 -0.0070995 0.0059703 -0.0081758 0.0099431 -0.0056649 0.0065855 -0.007062 -0.0071801 -0.0089358 -0.0059993 -0.0044496 
Mittwoch -0.0060639 -0.0091442 0.0020814 -0.0056889 -0.0060925 -0.0059618 7.6458e-05 -0.0077676 0.0028484 0.008086 0.0026036 -0.0046403 0.0085976 0.0070006 -0.0073249 -0.0018129 0.0052761 -0.0038137 0.0055318 -0.0067726 0.010065 0.0016551 -0.0028949 0.0045428 -0.0071753 0.0057196 0.0011864 0.0011356 -0.0089571 -0.0033566 0.0081359 -0.0062506 -0.0074415 0.0057855 0.008002 -0.0092551 0.0018605 0.0037782 -0.0097257 -0.0064723 -0.010212 -0.0021595 0.0061062 0.0023373 -0.01015 -0.0083341 -0.0049071 0.0012364 0.0087839 0.003775 -0.0073525 0.0053916 -0.00075103 0.00946 0.0040343 -0.0081108 -0.0060252 0.00091355 -0.00015109 -0.007292 -0.0019704 0.0025775 -0.0027879 0.0054609 -0.0049156 -0.00089718 0.010564 -0.00064097 0.0052174 -0.0056107 -0.0094965 0.0057296 0.0033741 -0.0042495 -0.0092435 -0.0034685 -0.0046844 0.0035471 -0.0035844 -0.0070703 0.0011722 0.0063456 -0.0037493 0.0044476 -0.0016256 -0.004913 -0.00333 -0.0056113 0.00543 -0.0030049 0.0040262 0.0078466 0.0043338 0.010076 0.00050019 -0.0029187 -0.0005261 0.0089147 0.002843 0.0039677 
18 0.0016161 -0.0066182 -0.0049368 0.0026462 -0.0073291 -0.0063436 -0.001122 0.001262 0.0053361 0.0028512 0.0091302 -0.00061456 -0.005258 0.0081895 0.0066381 -0.0059926 -0.0036998 -0.0068863 -0.0059553 -0.0096293 -0.0032475 0.0042445 -0.0086233 0.001261 -0.0041063 -0.005111 -0.0039181 -0.0067824 -0.0024996 0.008996 0.0071988 0.010299 -0.0086053 -0.0029761 -0.0036464 -0.00090066 -0.0032537 -0.0056639 0.0051071 0.0023321 -0.0044927 -0.0085825 -0.003872 0.0013038 0.0060641 0.005398 -0.006467 -0.004937 0.0036105 -0.008363 -0.0099952 0.0073183 -0.0074369 -0.0047325 0.0085127 -0.0073094 -0.0068873 4.9238e-05 0.0018027 -0.0010574 0.0038267 -0.003372 0.0080285 0.0099679 0.0073001 0.004609 0.0056582 -0.0013636 0.0010908 -5.4972e-05 -0.00080312 0.0080097 -0.0056581 0.0002519 -0.0087314 0.0043263 0.0055435 0.0066969 0.0071138 0.00045829 -0.0031872 0.0014136 0.0056466 0.00804 0.0087622 -0.0093484 -0.0035608 -0.0062052 -0.0030615 -0.0046122 0.0005908 -0.0001403 0.0036326 0.0055351 0.0084044 -0.0003662 -0.0092133 0.004885 -0.0030136 0.00023122 
open 0.0080684 -0.007398 -0.0042816 -0.0011817 -0.0042695 -0.0093837 -0.009904 0.0042741 -0.0040749 -0.0047485 -0.0088724 -0.0040111 0.0069039 0.0054476 -0.0096569 0.0057786 -0.0032431 -0.0071894 0.001387 0.0063265 -0.00086715 0.0070606 0.0087601 0.0073327 -0.010403 0.0015908 0.0081356 0.0051708 0.0028568 0.0074647 -0.00561 -0.0032926 -0.00036534 0.0048781 -0.0023451 0.0085768 -0.0051521 -0.0079992 -0.0045958 -0.0031795 -0.010298 -0.0074553 0.0025043 0.00044605 -0.0067761 -0.0083783 0.0016045 0.0048757 0.0084189 0.0083694 -0.0021184 -0.0074897 -0.0032681 0.0059243 0.0050393 0.0095001 0.010002 0.0055019 0.0015161 -0.0027435 -0.0012269 -0.00071824 -0.0024001 -0.001063 0.0077924 0.0032787 0.0093808 0.002021 0.0012657 0.0093765 -0.0022386 0.0086915 -0.0073227 0.0043785 -0.0046998 0.00087833 0.0020517 -0.0067514 0.0071375 -0.0094736 -0.0016498 0.004153 0.00058557 -0.0017228 0.0079529 0.0070187 0.0033013 0.0043206 0.00099387 0.008308 -0.00059961 -0.0030723 -0.0095779 0.0073122 0.0029759 0.0043611 -0.010054 -0.00010894 -0.00315 0.002478 
Mitbewohner*in -0.0064882 0.0082511 0.0060088 -0.0047717 -0.0072659 -0.0080331 -0.0046997 -0.0075512 0.00065646 -0.00010953 0.0047759 0.0080313 0.0012135 0.0086561 -0.00070714 -0.0045029 -0.0059112 0.0050662 -0.00021791 -0.009144 -0.003138 -0.0088374 0.0049437 -0.0024008 -0.0078954 0.00073696 0.0033724 -0.0080889 0.010563 0.0088153 -0.0083967 0.0026536 -0.0052845 0.0025263 0.0073395 0.0048794 0.0077166 -0.0063567 -0.0023111 -0.0063782 -0.0053311 -0.0034326 0.00038366 -0.0025895 -0.0074646 0.0010123 -0.0056834 0.0098058 0.0029134 -0.0082593 -0.0026981 9.4987e-05 -0.0091952 -0.0085434 0.0026494 0.0068975 0.005817 0.0081984 0.0097498 0.0043286 -0.0062224 0.0014877 -0.0074235 -0.007415 0.010857 -0.00021908 -0.0017891 -0.007653 0.0080507 0.00050438 0.0053316 -0.0077607 0.0063295 0.0041433 0.0011018 0.0099958 -0.001698 -0.0032149 -0.0081458 -0.0018189 -0.0074989 0.00058795 0.0068409 -0.0094441 0.0012916 -0.0080235 0.0037047 -0.0092615 0.0014519 0.0052474 0.0030859 0.0049241 -0.0078854 0.0022604 0.0083979 0.0062017 0.0083762 0.00094414 0.0072242 0.0050752 
20 -0.006333 0.009365 -0.0054276 0.0056232 0.0058009 -0.0062101 0.0034773 -0.0077191 -0.00021267 0.0034686 -0.0047476 -0.003552 0.005989 -0.0061574 -0.0057072 0.0041319 0.0013269 -0.0025605 -0.0039796 -0.0069731 -0.0084623 0.0031915 -0.003359 -0.0027247 0.0058568 -0.0076179 0.0017927 0.0078789 -0.0039469 0.0073919 -0.008339 -0.0053894 0.0023768 0.0025159 -0.010454 -0.0081611 0.0084047 -0.0074817 0.0035535 0.0025734 -0.0040489 0.0043118 0.0067473 0.0058752 0.00071058 0.0057553 0.007311 -0.005861 -0.0018945 -0.0046759 0.0016955 -0.00045561 0.001585 -0.0071931 -0.0063999 0.0047565 -0.0066268 0.0069396 0.0088172 0.0078886 0.0005339 0.0030003 -0.0078525 -0.0093927 -0.010049 0.00047686 -0.0065897 0.0064021 -0.0084078 -0.0082109 -0.0092679 -0.0082042 0.0031724 -0.0077607 -0.0088873 0.0038288 -0.010073 0.0018352 0.0093626 0.0021113 -0.005111 -0.0050395 -0.004241 0.00092489 -0.0097734 -0.0018605 0.0056423 0.0019148 0.0086369 0.0090096 0.0073572 0.0030713 0.0031005 -0.0039029 0.0088802 0.0083758 0.0023977 -0.0078227 -0.0028635 0.0036829 
Freitag 0.0023914 -0.0054285 0.0046785 -0.0010361 0.00070654 -0.005024 -0.0039958 0.0082514 -0.00060609 9.1695e-06 -0.0072074 -0.0012653 -0.0027542 0.0014738 -0.0091777 0.005331 -0.0031869 0.0065826 -0.0023705 -0.0075081 0.0051175 -0.0072569 0.001176 0.0044538 -0.0040377 -0.0062873 -0.0035906 0.0089273 0.0062418 -0.004606 0.0082032 -0.0042984 -0.00064275 -6.886e-05 0.0048639 0.0071155 0.0091438 -0.0052621 -0.00082105 -0.0017589 0.0068631 0.0034729 -0.0031232 -0.0094993 -0.0013072 0.0018369 0.0078805 -0.0010594 0.0069284 -0.0050727 -0.0094918 -0.0061469 0.0039335 -0.0058354 -0.00025991 0.00055598 0.0067906 -0.0061556 0.0093628 -0.0080982 0.0010614 -0.0032283 0.0082999 0.01001 0.0012673 0.0056133 -0.0045994 -0.0062928 0.0046432 0.0062035 0.0037231 -0.0018159 -0.0081689 0.0031466 -0.0042293 0.002548 -0.0079373 -0.0063379 -0.0090691 -0.004723 0.0098371 0.00068375 0.0070781 0.007595 -0.0098151 -0.0050643 -0.002737 0.0020417 0.0055062 0.0089299 -0.0081238 0.0046429 0.0054219 0.010137 0.0083774 -0.0092194 -0.0042447 0.00093136 -0.0069885 -0.0059073 
Mitbewohner:in 0.0013169 -0.0060911 0.0034943 0.0073552 0.0051549 0.0062261 -0.0043803 -0.003281 0.0022292 0.0044823 0.0028367 -0.0042271 0.0050461 0.0026574 -0.0016284 -0.0045511 0.010221 0.0024337 -0.005155 -0.0096362 -0.0044942 -0.004739 0.01124 -0.0054725 -0.0018455 0.0025852 -0.0081331 -0.0026817 0.005251 0.0094584 0.003831 -0.010225 0.0050745 0.0011021 -0.004995 0.0067668 -0.0003178 -0.0090186 0.0079266 0.00032783 0.0044853 -0.0026315 0.0045336 0.0096211 0.0063098 -0.0093815 -0.0099668 -0.00035791 -0.0071064 0.0083704 0.0024529 -0.0087782 -0.0028286 0.0090834 -0.0065598 0.0083004 -0.0043859 -0.0094708 -0.0014228 0.0059386 0.010608 -0.0051028 -0.0075613 0.0015326 0.0023623 -0.0018567 -0.010835 0.0020114 -0.0080052 -0.0089606 -0.0012003 0.0022882 -0.0043609 0.0060542 -0.0047291 0.0089968 0.0044909 -0.0069922 -0.0018135 -0.007082 -0.0014251 0.00043111 0.0031018 -0.010958 -0.0086564 -0.0056097 -0.0075121 0.0046963 -0.00066339 0.00063677 -0.0031145 -0.00061699 -0.0071812 -0.0060407 0.0012735 0.00021239 -0.0040838 -0.0076625 0.010839 -0.0010942 
Wohnungssuche -0.0033609 0.0061858 0.0013423 -0.0081654 -0.0098807 0.0070968 0.0062662 0.009492 0.0044911 -0.0057956 0.0079554 -0.0021027 -0.0019465 -0.0024834 0.0098622 -0.0059018 -0.0071833 -0.0075853 0.0019674 0.004127 -0.0087497 -0.0064042 0.0091658 0.01078 0.0063424 -0.0051489 -0.0085171 0.010331 0.012158 0.0048579 -0.005736 -0.005364 0.00067224 0.0043809 -0.0034122 0.0040863 0.0052178 0.0057359 0.0072456 -0.01079 0.0042899 0.0092245 -0.0061976 -0.00068235 0.0043711 -0.0064751 -0.0055277 0.0033383 0.0039669 0.0082554 -0.00080431 0.0012608 0.00065679 0.0040206 0.0057812 0.0046311 -0.0099868 -0.009301 -0.0070599 -0.013293 0.0048323 -0.0048775 0.0073207 -0.0082864 -0.0012364 0.00022157 -0.0079582 0.0039181 -0.0059982 -0.0064933 0.0051183 0.008274 0.0088092 0.0082125 -0.0076143 0.010548 0.0013528 0.0047172 -0.0024531 -0.0058435 -0.0031469 -9.3136e-05 0.0017349 0.0017344 -0.0031524 0.0057531 0.0098267 -0.0050878 0.0015117 0.010554 -0.0061487 -0.0038651 -0.0029893 0.007001 -0.00019503 0.0044061 -0.00044363 0.0079018 -0.0043615 0.0066035 
Fr. 0.0022367 0.0032883 -0.0066833 -0.004415 0.0010721 -0.00038443 0.0058097 0.005639 0.0028539 7.9861e-05 -0.0067005 -0.0012423 0.0066156 0.0059349 0.007591 0.00071323 -0.0021754 -0.0099697 -0.0047164 0.00058385 -0.0031828 0.00053644 0.0065578 0.0035979 0.0012878 0.0044255 0.0014508 0.0083693 -0.0038837 -0.0084307 0.0045936 -0.003763 0.0042383 0.011121 -0.0080213 -0.0019015 0.0078725 0.0085249 -0.005898 -0.0017028 0.00058166 -0.0078998 0.0068499 -0.0078261 0.0089813 -0.0069814 -0.0062636 0.0069433 -0.0059544 -0.0062434 0.00057064 -0.0054018 0.0075506 0.0037841 0.0090767 -0.0070922 0.0032701 -0.0062185 -0.005623 0.0053629 0.0088312 -0.0054825 0.0045374 -0.0076983 0.0020022 0.00029151 -0.004849 0.0057164 0.0085219 -0.0070902 0.0057911 -0.008514 0.0011437 -0.0098704 -0.0095686 -0.0011068 0.0054448 -0.0037292 0.0068399 -0.0036818 0.00038958 -0.0031497 -0.00030121 -0.0052095 -0.0038159 0.0073729 -0.0048551 -0.0041341 -0.0086919 -0.0025798 -0.0021585 -0.0036778 0.0013831 0.0021068 -0.0055448 -0.0094876 -0.0028553 0.0063563 -0.004474 0.0010054 
Juli -0.0038638 0.0093958 0.00032236 -0.0025412 -0.0092435 -0.0082087 -0.0018142 0.0062132 0.004932 -0.0016373 0.0046079 0.0061967 0.0018445 0.0016909 0.0077189 -0.0065205 0.0098799 -0.00054675 -0.0097292 0.0020572 -0.0043455 -0.0011061 -0.0025995 0.0066459 -0.00093228 0.0036715 0.0044314 0.0051316 -9.1003e-05 0.003509 -0.002646 0.0074545 -0.0056646 -0.010237 -0.0048818 -0.0075277 0.0058239 -0.00059154 0.0072754 0.0036337 -0.0072655 -0.002868 -0.0025076 -0.0085308 0.00031472 0.0087848 0.0073129 -0.0098251 -0.007384 -0.0035783 0.0004065 -0.0026745 0.0081148 -0.0063645 0.0081161 -0.0053087 0.0056281 -0.0035807 0.0082788 -0.010923 0.0087545 0.0054181 0.0048998 -0.00086463 0.004987 0.0092738 -0.010126 0.0098971 0.0083704 0.0005833 -0.0033694 0.0090535 0.010166 0.0008996 0.0089769 0.0037598 0.00091131 -0.0052923 -0.0054965 -0.0074799 -0.0091211 0.0032194 -0.0076802 0.0083091 -0.0078808 -0.0035758 -0.00040943 -0.0066825 0.0045391 0.0063477 0.0061373 -0.003777 -0.005939 -0.0012746 0.0043529 0.007515 -0.00073065 -0.0098766 -0.0011906 0.0020377 
Uhr, -0.00083759 -0.0017871 -0.0017041 -0.0011226 0.0026199 0.0025948 -0.0094784 -0.0044848 0.0027124 0.0055744 0.0069117 0.0060974 0.0071786 -0.0054574 -0.0052182 -0.0072504 0.0088751 0.004273 -0.0076486 -0.0068953 -0.00068562 -0.003085 -0.010723 -0.0074235 0.0091541 -0.0083638 0.0093742 0.00021515 0.0056253 -7.0515e-05 0.00072634 0.0077284 0.0055738 0.0046735 0.0075566 0.00014756 0.0069373 0.0037818 0.009458 0.009839 0.0026283 0.0091191 0.0069753 -0.0078643 0.00073184 -0.0013958 -0.0030108 -0.001752 0.010297 0.0096046 0.0040178 -0.0030149 -0.00081182 0.0031359 0.0063255 0.0099998 0.00031687 -0.0089774 0.0088471 0.0092987 0.0038015 0.0028168 0.003401 0.0078863 -0.00037186 -0.0020621 0.0068198 -0.0023751 0.0079548 -0.0032589 0.00795 -0.0076007 -0.0094247 0.0056526 -0.0091808 0.00019984 -0.0058066 -0.0098697 -0.0083042 0.0015865 0.0031187 -0.0027039 0.0095968 0.0097558 -0.0073488 0.00023584 0.00040958 0.0084188 -0.010095 0.0065121 0.0049819 -0.008305 -0.0073567 -0.0021587 -0.004291 -0.0054741 0.00032925 0.0013218 0.0037751 -0.00584 
suchen -0.0072055 0.0039343 -0.00062461 0.0073203 -0.0014017 -0.0090326 -0.0080579 0.0066269 -0.0039046 -0.008945 0.010029 0.0090252 -0.0057323 0.0088972 -0.0092822 -0.0076707 0.00083314 0.0044652 -0.00038539 0.0081203 -0.0054554 -0.0082289 -0.00045439 0.0081331 -0.00024116 -0.0092582 -0.00092196 -0.0063874 -0.0016362 0.00053314 -0.0012363 -0.010597 0.007307 -0.00078013 -0.0028972 0.0087051 -0.0049369 0.0075439 0.00011425 0.0028493 -0.0091067 0.0050713 0.0059736 -0.0060295 0.0023765 -0.0079278 0.0064703 -0.0054804 -0.0086961 0.0088284 0.0019674 -0.0044323 0.0026846 0.0032029 0.0030824 0.0052303 -0.010282 0.0083146 -0.0012442 -0.0026462 0.0024963 -0.00062105 -0.00078776 -0.00064264 0.0029854 0.0046222 0.0021161 0.0035326 0.0053209 -0.0011393 0.0066371 0.0056023 0.0095669 -0.00069264 0.0045111 0.0020919 0.0049925 -0.0073132 0.0012543 -0.0045283 0.0010356 0.0068917 0.0077478 0.0062523 0.0082886 -0.0013498 -0.0066244 -0.0026045 0.0069688 -0.0036231 0.0090002 -0.0060534 0.0084308 -0.00038093 -0.008551 0.0045866 0.0027364 0.0024251 -0.0054347 -0.0097102 
bis 0.0052776 0.0021169 -0.0046229 -0.0069945 -0.005504 0.0042393 -0.00056364 -0.0001232 -0.0068461 -0.0017187 0.0025644 0.0080114 0.0025234 0.0026577 0.0020325 -0.0064311 -0.0010816 0.0020244 0.0095944 -0.003114 -0.0026891 -0.0093549 0.0073027 -0.0027559 -0.0028789 -0.0099405 -0.0020709 -0.0028441 0.0091446 0.0069895 0.0051018 0.0041465 -0.00060505 0.0003122 0.0048427 0.0056441 0.00491 0.0080993 -0.010046 -0.008599 0.0029756 0.0091799 -0.0089037 0.0057359 0.0031723 0.006047 0.0059424 0.0034096 0.0064884 0.0090697 -0.0037869 -0.0065739 0.0003931 0.0094883 -0.0014145 0.0030227 0.0049973 0.0081071 0.006439 0.0031067 0.0064762 0.0069026 0.0064623 -0.0013148 0.0023154 0.0026348 -0.00018624 0.0005048 -0.0080833 -0.0072469 0.0020607 -0.0038752 -0.0021062 -0.0052097 -0.0068464 -0.00032038 0.0073716 -0.0020838 -0.0097377 -0.0083371 0.0033225 0.0012228 0.0016666 -0.0078451 -0.0088575 -0.0014842 0.0051966 0.006108 0.0085124 0.0008561 -0.0029536 6.9993e-06 0.0087815 -0.0086322 -0.0033312 -0.0082154 0.0045658 -0.0055668 0.0044092 0.0046401 
gesucht! 0.0096499 -0.0047475 0.0046607 0.0082501 0.0053487 -0.0039793 0.0047696 0.0076633 0.00086953 0.0016542 -0.0038652 0.010194 0.0053388 -0.0060093 0.0090326 0.0011993 -0.0056175 0.0081 -0.0014356 0.0029279 0.0069931 -0.0082548 0.0074051 0.00055652 0.0036575 -0.0052547 0.0045341 0.0055145 0.0052267 -0.0064403 -0.00018103 -0.0011607 0.0055391 0.0086422 0.0050832 0.006748 0.0016997 -0.0032121 -0.0065916 -0.0069149 0.00035817 0.0082794 0.0027362 -0.0082138 0.0074654 -0.0050892 0.0083949 0.0067315 0.0043688 0.001722 -0.00044949 0.0037143 0.0018565 0.0058764 0.0059904 -0.0085185 0.0088756 -0.0044122 -0.0023947 -0.0076309 -0.00078255 -0.0075251 0.0071701 0.0005467 -0.0035567 0.0086206 -0.0071745 0.00066772 0.0012397 -0.0087514 0.0054869 -0.0045561 -7.145e-05 -0.0079554 0.0062965 -0.0028414 0.0016009 0.0024934 0.0017601 -0.0068152 0.0077095 -0.0087634 0.0023806 -0.0063997 0.0076925 -0.0077067 0.0013547 -0.0034715 -0.0028362 -0.005962 -0.0019627 -0.0071007 0.0052489 0.0034326 0.009712 0.0050851 -0.0058627 -0.0057213 0.0017906 -0.00064696 
| -0.0020855 0.0085594 -0.004373 -0.0023733 -0.0051487 0.0057394 -0.0062841 0.0092786 0.0042245 -0.0084559 0.003417 -0.0053661 -0.0083129 0.00099247 -0.0029841 -0.0061932 0.0088383 -0.0083907 0.0029609 0.008707 -0.0029953 -0.0070037 -0.0085123 0.0069513 0.0063286 0.0073436 0.0031459 -0.0099959 0.0044171 -0.0041105 0.0088737 -0.0069642 -0.0099483 -0.0014363 -0.0070262 -0.0006334 -0.0022744 0.0031488 -0.006144 0.0081837 0.005734 -0.0085277 -0.0078765 -0.0079044 0.0072361 0.0095072 0.007535 -0.0056196 -0.004038 -0.0035897 -0.0081701 0.00022012 -0.0041428 0.0097234 -0.0058278 -0.0011121 0.0070583 0.0030716 -0.0049246 -0.0080834 0.0063356 -0.0052737 -0.0076855 0.0014016 -0.00026281 -0.0076738 0.0018931 -0.0039989 0.0028711 -0.0029242 -0.0054081 -0.0072434 0.00457 -0.0074528 -0.0093545 0.00016514 0.0082469 -0.0050497 -0.0091451 0.0048232 0.0089622 -0.0099455 -0.0016461 0.00078929 0.0036466 0.0052405 0.007803 0.0018698 -0.0072222 -0.00033537 0.0050892 0.0094816 -0.0017942 -0.0026142 0.0049241 0.00066213 -0.0012944 0.0099654 -0.0078732 -0.0016692 
Leibnizhäuser 0.0023548 0.0085583 0.0083433 0.0067181 0.0080231 -0.0087426 -0.00033235 -0.0057009 0.0067931 0.0003311 -0.0035221 0.00534 -0.0093965 0.0098817 -0.0027368 0.0046293 -0.0023449 0.0018853 0.0088965 -0.0010046 -0.008143 -0.0098176 0.00022301 -0.0090965 -0.0050409 0.00659 -0.0047806 0.0086048 0.0039928 -0.006844 -0.0084671 0.0095127 -0.0051122 0.0092029 0.0020491 0.00025646 -0.0036635 -0.0083664 -0.0082171 0.0070544 -0.0003237 0.0062767 -0.0069966 -0.0049254 -0.0060815 -0.0011503 -8.3019e-05 0.0048302 0.010013 0.0015822 -0.0014525 -0.0027465 0.00028289 0.0091139 0.0071855 0.0012284 -0.0025986 0.0059826 -0.0099297 0.0052716 0.0047711 0.0093724 -0.0060742 0.0020874 -0.0036114 0.0092061 -0.002862 -0.0037941 0.0085481 -0.00029461 0.008203 -0.002657 -0.0016689 0.0059736 0.0038601 0.0086629 0.008391 -0.004876 -0.0014698 -0.00024473 9.2866e-05 -0.0077006 -0.0026384 0.0019216 -0.00021056 0.0097099 -0.0015526 0.0026532 -0.010434 -0.00078042 -0.0084207 0.0084262 0.00044498 0.0093534 0.0015994 0.0024167 0.0034195 -0.0096777 0.0071703 -0.0080772 
Juni 0.0029641 -0.0063751 0.0029216 -0.0063897 -0.0095931 0.0082353 0.0074331 0.0043602 0.0075796 -0.002271 -0.0099452 -0.006207 -0.00062408 -0.0013924 -0.0013243 -0.0053249 0.0085829 -0.0023454 0.0038313 0.0044605 -0.009632 0.0021407 0.0095357 -0.0048305 -0.0028043 -0.0065116 -0.0069102 0.0038473 -0.0041588 0.0055464 0.0066239 0.005127 0.0061676 0.0043735 -0.0060901 0.0085916 -0.0032571 0.008166 -0.0017861 -0.0077625 0.0063256 0.003018 -0.00088494 0.009412 0.0060101 -0.0028026 -0.00094392 -0.0056786 0.0061127 -0.0088743 -0.0039145 0.0088029 0.0080509 -0.0091729 0.008248 0.0070169 -0.00013853 -0.0010704 0.00099721 0.0039923 -0.0014907 -0.0087361 -0.0089837 -0.0030833 -0.0018612 -0.0014044 0.00032901 -0.0030283 0.008193 -0.006133 -0.0079974 0.0039176 -0.0085829 0.0031084 0.0091146 0.0062299 0.0025759 -0.0026675 0.0025683 -0.0018964 -0.0042712 -0.0024576 -0.0045378 0.0077547 0.0087886 -0.0022077 -0.0047187 0.0053219 0.0028952 0.0086421 0.0062298 0.0068202 0.0031676 -0.0070977 -0.0056083 0.006221 -0.0044473 -0.0085593 -0.00047404 0.0055786 
ist 0.0069771 -0.0070138 -0.00019158 -0.0015537 0.00034184 -0.0011352 -0.006279 -0.0010879 -0.00085983 0.0072863 0.0059578 0.005438 0.0050983 -0.004132 -0.0078435 -0.0075705 0.0093106 0.0035325 -0.0075061 -0.0039316 0.0067645 -0.010477 -0.0080667 0.004896 0.00065655 0.0069168 -0.0041513 -0.0008774 -0.0049289 -0.00013662 -0.0085728 -0.0052281 -0.004422 -0.0064419 0.007674 -0.0012007 -0.0039691 -0.0098903 -0.0060663 0.0022358 -0.0073796 0.0084517 -3.5781e-05 -0.0091806 0.0019262 0.0061604 -0.0074379 0.0065488 0.0018547 -0.0082537 0.0017837 0.0081838 -0.0028948 -0.00037815 0.003611 0.0098143 -0.0094997 0.0082702 0.0066328 0.0063035 -0.0056841 -0.0070598 0.0091918 0.002586 -0.0081529 -0.0096276 0.0023 0.0032402 0.0050199 -0.0082996 0.0030642 -0.0031562 -0.0071281 0.00060657 0.0067005 -0.0025862 0.0056036 0.0017664 0.0028973 -0.0017819 8.1388e-05 0.0090697 0.0059333 -0.002515 -0.0070702 0.0035731 -0.0034739 0.0072511 0.0065765 -0.0027336 0.005322 0.0080024 0.0065182 -0.0063632 0.0070548 -0.0043766 0.0056088 0.010204 -0.0031978 0.005182 
Was 0.0041065 0.0071437 -0.0096489 0.0048019 0.0088826 -0.00023185 0.0049603 -0.0042506 -0.0018153 -0.0051561 0.0089788 0.0050096 0.001089 0.0016213 0.0090402 0.0041119 0.0038387 0.0059658 0.0055298 0.00066387 0.0031626 0.0014146 -0.002706 0.0089164 -0.0085349 0.005017 -0.0024728 0.00064852 -0.0080117 0.00031837 -0.0019667 -0.0035296 0.0059042 -0.0058272 0.0073821 0.0061185 -0.00071215 0.0096069 0.00095527 0.0030973 -0.0076276 0.0034959 -0.0014701 0.0072881 -0.005136 -0.0004182 -0.0070855 0.0041464 -0.0030731 -0.0064223 -0.0025365 0.0036341 -0.0041985 0.0094658 0.00031684 -0.0044499 0.0095756 -0.004671 -0.0059644 0.0090789 -0.0053117 0.0021759 0.005518 -0.0068333 0.0047066 0.0088895 -0.007951 0.0060743 0.0032492 0.0075523 -0.00036491 -0.0063806 0.0093481 0.0035701 -0.0097024 0.0041878 -0.0060167 0.0043384 0.00018316 0.0039998 0.0025947 0.0018845 0.0021599 -0.0070576 -0.008375 0.0057001 0.00033775 -0.0085188 -0.006478 -0.0091718 -0.0077054 -0.0005175 -0.0078082 0.0092555 -0.0052438 -0.0083172 0.0087708 -0.002333 -0.010451 -0.0039246 
Queerfeminismus? -0.0077775 0.0081713 -0.0035026 -0.0098276 0.0082946 -0.0089843 -0.0024413 0.0036391 0.0039891 0.0058627 -0.0041855 0.0029452 -0.0011565 -0.0094006 -0.0068395 -0.00010432 -0.0057802 0.0049275 0.00013373 -0.0052089 0.00094029 -0.0074321 0.0021847 -0.0095595 -0.0065693 0.0021827 0.0041786 0.0042346 -0.0026674 -0.0024081 -0.0060398 -0.0055055 -0.0079226 0.0040098 0.0011512 0.0013495 0.0041489 0.0059184 -0.0037341 0.0011555 -0.0023394 0.0043284 0.0046034 0.0031929 0.0037956 0.0031354 -0.0050409 0.0087637 -0.0078481 0.0036998 0.0045803 -0.0028779 -0.0043521 -0.0069533 -0.0074806 -0.0027841 -0.0075197 -0.0032694 0.0032838 0.0088477 0.00040889 0.00044844 -0.0056252 0.00091853 0.0086796 -0.0034234 -0.0033577 0.0099119 -0.0074536 -0.0048177 -0.0072064 -0.0018064 0.001667 -0.0062189 0.00081992 0.0031034 -0.001376 0.0099096 -0.0085518 -0.0038813 -0.0056774 -0.0030897 0.0097188 -0.0089671 -0.0056269 -0.0057772 -0.0038075 -0.0026609 -0.0066398 0.0079922 -0.00013881 0.0044591 0.0043644 0.0095156 -0.0059355 -0.0017351 0.0034072 0.0069729 0.0017802 0.007874 
Mitbewohni 0.0011865 -0.0068505 -0.001261 -0.0092445 -0.0073468 -0.0053487 0.0083764 -0.0048144 0.0093173 -0.010239 0.0026388 0.0066238 0.002722 -0.0069757 -0.000613 -0.0034631 -0.0089835 0.0068886 -0.0047744 0.0025274 -0.0037425 -0.0061996 0.0093841 0.010223 -7.8302e-05 0.0066371 0.0070308 -0.001814 0.0097256 0.010409 0.0064005 -0.0019858 0.005627 -0.010166 0.0099239 -0.0048654 -0.0091595 0.0071904 -0.00037153 -0.0055923 0.0094889 0.0094083 -0.0050614 0.0050445 -0.0077919 -0.0050282 0.0043195 -0.0066198 0.0037069 0.0065072 -0.0026334 -0.00077761 -0.0026035 0.0075231 -0.008345 0.0030148 -0.010334 0.00069496 0.0012982 0.0081086 0.0080756 0.010166 -0.0076817 -0.0082713 0.0033066 0.010389 0.0080249 -0.0078364 0.0090064 -0.0076513 0.0003686 0.0064607 0.0015081 0.0014911 0.0042121 -0.0062181 0.0035607 0.0077105 -0.0024116 0.010507 0.0058871 -0.0015733 -0.009068 -0.0073859 -0.0077262 -0.00084252 -0.0006188 -0.0014308 0.0045094 0.0046632 0.0077576 0.0042668 -0.003727 -0.0040581 -0.0040023 -0.0059295 -0.0028368 -0.0092975 0.00979 -0.0085382 
Lichti -0.0044343 0.0004153 -0.0056349 -0.0070343 -0.0051246 0.0042208 -0.00016927 -0.0049289 0.0042307 0.00083386 0.0027588 0.0095631 0.010011 0.0027503 0.0085315 0.0058208 0.008108 -0.0094951 -0.0037553 -0.0012908 0.0098631 0.0061226 -0.00065574 0.0029505 -0.00415 0.0097988 -0.0060905 0.0081091 0.0018178 0.0023183 -0.004903 -0.0078346 -0.0029545 0.0011113 -0.0012956 -0.002765 -0.0069712 0.00079793 0.0048182 0.010267 -0.0043382 0.0083045 -0.0076226 0.0080487 0.0024956 -0.0024321 -0.0044362 -0.0048396 0.0020848 0.005059 -0.0039603 -0.00065474 0.00031847 0.0012625 -0.0091372 0.0069094 -0.001083 -0.0028406 -0.0099931 -0.0064167 0.0029254 0.0021742 0.0018567 0.0070359 0.0075956 0.0073042 0.0069036 0.0073226 -0.0076166 -0.0010731 0.0085878 -8.9092e-05 0.0035838 -0.0090628 -0.0065756 0.0079879 -0.0015388 0.0010899 -0.00049635 -0.0099268 0.0050684 0.00030197 0.0061212 -0.0030405 -0.00065884 0.0063057 0.0043817 0.010402 -0.0086205 0.0082526 -0.0053521 0.0095993 -0.0029579 -0.00054064 -0.0061125 0.0019419 0.009029 -0.001721 0.0042466 -0.0037082 
19 -0.0009871 0.00041054 0.0019025 0.0071544 -0.0052935 0.0039704 0.0039904 -0.00070651 -0.0018484 -0.0052404 0.0029019 0.0028253 -0.0054481 0.0047623 -0.0007512 0.010073 -0.0053351 -0.0080635 0.0069229 -0.0011871 -0.0010063 -0.0053334 -0.0019998 -0.00019738 0.0052181 0.0027203 0.0046267 0.006975 -0.0040624 -0.0065301 -0.0015225 -0.0020145 0.0031967 -0.00101 0.0071515 -0.0023878 -0.0047613 0.0034199 0.0041724 0.0017875 0.008752 0.0092019 0.0094347 0.0093733 -0.0069845 -0.0013895 -0.0020857 0.00072272 0.002731 0.007016 -0.0062508 0.0062695 -0.0035014 0.005938 -0.0059359 -0.0090991 -0.00043953 -0.0013746 0.0079648 0.010173 -0.0025178 -0.010208 0.0025789 -0.0071513 -0.0073287 -0.0052865 -0.0058817 -0.0022626 -0.0020333 0.0056356 -0.00087846 0.0058906 -0.003734 -0.0074371 0.0075569 0.0059278 0.0092505 -0.0043275 0.0062749 -0.0068785 -0.0043962 0.0087438 0.0040756 -0.006144 -0.0064574 0.0073653 0.0097464 0.0075878 -0.0077685 0.0027322 -0.00020537 0.0080496 0.0052709 -0.0056035 -0.0079571 0.0011094 -0.0069206 -0.001231 0.0079085 0.0057306 
Tübingen -0.0033661 -0.0076728 -0.0017568 0.0064356 0.0016957 0.006124 -0.0099404 0.0036432 0.0014418 -0.0087351 -0.0083486 -0.005153 0.00069284 0.0030577 0.0079164 0.0095454 0.005783 0.0084385 -0.0084553 -0.006789 -0.0026527 -0.0050357 -0.0017306 -0.0099469 -0.001147 -0.0068429 0.0019871 -0.0020115 -0.0090034 -0.007115 0.0058227 -0.00074104 0.0044185 0.0086379 0.0019592 0.0042288 -0.0064536 -0.0021934 0.0059361 -0.00026194 -0.0029525 -0.0057687 -0.00045486 0.0086486 -9.7722e-05 0.0074765 0.0093765 -0.0051374 0.0022383 -0.0016834 -0.0069939 -0.0016411 -0.0096555 0.0065923 -0.0019081 -0.0046012 0.0075122 0.0055321 -0.0052897 0.0051605 0.006216 -0.0068916 -0.003791 -0.0035949 -0.0066877 -0.0018675 -0.0071313 -0.0051589 0.00056845 0.0049743 0.0026096 -0.0018421 -0.0050092 0.00035374 0.00070807 -0.0074792 1.6798e-05 0.007128 0.0054741 -0.0019094 -0.0017289 -0.0074335 -0.00022197 0.0095571 -0.0067703 -0.0042561 0.0024126 -0.0019438 0.0010418 0.0060151 0.0040983 0.0098963 -0.003023 -0.003401 -0.0039364 0.010191 -0.0068944 -0.0051556 0.0023058 -0.0070491 
Kundgebung 0.0030112 0.0062179 0.0094672 -0.0036417 -0.0067383 0.0043079 0.0060522 -0.0018741 -0.0095702 -0.0043744 0.007383 0.0087799 0.0064098 0.0029515 -0.0022201 -0.0071454 0.0014979 -0.006018 0.0069149 0.0020563 -0.0041227 0.0039706 -0.0028937 -0.0037623 8.5404e-06 -0.0072617 -0.0049869 -0.0076924 -0.0051768 -0.0023593 -0.0037222 0.001491 -0.0052031 -0.0013352 0.0046705 -0.0088237 -0.0058529 -0.0078907 0.0096541 0.0069104 -0.009567 -9.7295e-05 0.0066717 0.00011608 0.00065769 -0.0042115 0.00081211 -0.0017043 -0.0092582 -0.0082189 -0.0084624 0.0093872 0.00033134 0.0050326 -0.0086064 0.00051528 -0.0045724 -0.0063204 0.0027036 0.0022512 0.0089316 0.0036999 0.0011112 -0.0087645 -0.0036885 0.0088221 0.004336 -0.0017932 0.004066 0.0086028 0.0081852 0.0093275 0.0081546 0.0014948 0.0076504 -0.0049065 0.0089585 0.0021097 -0.0054097 -0.0046804 0.0098538 -0.0025187 0.00087197 0.0014227 0.009702 -0.0042503 0.0087312 -0.0062907 -0.008098 0.0020084 -0.0064398 -0.0012885 0.0062958 0.0043731 -0.0021452 -0.0076966 -0.0081137 0.0055403 -0.0043437 0.0077747 
The -0.0051269 0.0024714 -0.0028702 0.0065915 0.0077861 0.0063659 0.0042362 -0.0059255 0.0028831 0.0014053 -0.0013281 -0.0024777 -0.0047618 -0.0092252 -0.0025481 0.0092159 0.00018194 -0.00039146 0.0081952 -0.0063637 -0.0023206 -0.00854 -0.0017513 -0.0094558 -0.0052596 0.0035567 -0.0040034 0.00056236 0.0034888 0.0093856 0.0037933 0.00081174 0.0028227 -0.00061713 0.0087179 -0.0028811 0.00059003 -0.0092223 0.0017513 -0.0086338 -0.0087528 0.00066445 -0.00045921 0.0073728 0.0070774 0.0011178 0.004769 -0.0056705 -0.0050349 -0.0063943 -0.0088881 -0.0079859 -0.0064255 -0.0018054 0.0021912 -0.0037718 -0.0012393 0.0036462 -0.0022139 0.010297 -0.0015437 0.0037927 0.000138 0.00037419 -0.0080654 0.0022301 -0.0060971 0.005843 0.00069735 0.0071403 -0.0094203 0.0062386 0.0067685 -0.0059915 -0.0096254 -0.0020175 -0.0077211 0.004463 0.0047292 -0.0041961 -0.0078337 0.0074632 0.006498 0.0047269 0.0023357 -0.0016646 0.0096515 0.0024762 0.005183 -0.0089568 -0.0098879 -0.0027169 3.9031e-05 0.0036857 0.0039746 -0.00041651 0.0064734 -0.0020008 -0.0071298 0.0019144 
Schellingstraße 0.0048957 -0.0010325 -0.0097539 -0.0051653 0.0070691 -0.0018268 -0.0070587 -0.0064764 0.0011255 -0.0049009 0.0098489 0.0056306 -0.0067237 -0.0073548 -0.0078124 -0.0067687 0.0010501 -0.00030214 -0.0073022 0.0019611 -0.0027121 -0.0012098 -0.0040636 0.0034421 0.0023271 -0.0086463 -0.0040222 -0.0031495 0.0026004 -0.00096534 0.0083838 -0.0074505 -0.0020942 0.0050395 -0.0026713 0.00026331 -0.0046066 -0.0044002 -0.0084647 -0.0048367 0.0032846 0.0075349 -0.0014239 0.0042522 0.0092646 0.0044919 -0.002045 0.0036386 0.0085912 -0.007413 -0.004197 -0.0088091 0.0095782 0.006348 0.0016382 0.0005112 -0.0054687 0.0034475 0.0021116 0.0033064 0.00051552 0.0033149 0.0070164 0.0068028 -0.0030045 -0.0084398 -0.003389 -0.0044578 -0.0092923 0.0048774 0.0016073 -9.3008e-06 0.0016151 0.0019956 0.0066564 -0.0048558 -0.0074759 0.0036433 0.0054147 0.0075685 0.0055321 -0.0021135 0.0031552 -0.0039283 -0.0073148 -0.0042144 -0.0044653 0.0076328 -0.0061626 0.00099479 0.0069086 -0.0013481 -0.0031822 -0.0094903 -0.004026 -0.0078222 -0.0094868 -0.0038111 -0.0040133 -0.0022309 
Die -0.0053177 -0.0016471 -0.0070474 0.00084547 0.0059156 0.0092105 -0.001975 -0.0038109 -0.0015134 -0.0088447 -0.0043302 -0.008939 0.0094456 0.0025031 -0.001734 -0.004552 -0.0030059 -0.0070082 0.0030233 0.0064887 0.0013963 0.0097647 -0.0010894 0.0027537 0.0030141 -0.001313 -0.0047082 -0.0012569 0.0057918 0.0076036 -0.0054722 0.0054728 0.0031108 -0.0047915 -0.0011658 0.0089716 0.0069224 -0.0079173 -0.0089934 0.0088009 0.00094011 -0.0041423 -0.0077305 0.0077679 -0.0071099 0.00042916 -0.0036511 0.0028997 -0.0080759 -0.0085831 0.0057775 0.0011945 -0.0051463 9.3132e-05 0.0047442 0.00084237 0.0061026 0.0021729 -0.0051786 -0.0072503 -0.0099699 0.0084376 0.0002434 0.009409 -0.0079705 0.0088537 0.0068825 0.0070456 -0.00018211 -0.0099647 0.00029893 -0.00023912 0.003163 0.0059561 -0.0072344 -0.0066782 0.0072966 -0.0016159 -0.008395 0.0082093 0.0044032 -0.0031119 0.0006315 0.0035375 0.0090144 0.0052269 0.0034565 -0.0063785 -0.0030952 -0.0019594 -0.0048379 -0.0018882 0.0033145 -2.1998e-07 -0.0038946 0.004493 0.0067167 -0.0068761 0.0041161 0.0017184 
eine*n -0.0058188 -0.0087333 0.0014061 0.0043665 0.0056652 0.001936 0.0012439 0.0092431 -0.0071154 -0.0065223 0.0034832 -0.004054 -0.0099024 0.0054457 -0.0055807 0.0015427 0.0058696 -0.00754 -0.0082247 0.0023111 0.0043105 0.01016 -0.0052863 0.0082021 -0.00098664 -0.0062171 0.0089892 0.0083505 0.010001 -0.0027036 -0.0039211 -0.0067361 0.0019082 -0.0081218 -0.0079451 0.0083296 0.0024974 -0.0080578 0.0043255 -0.008077 0.01035 0.0090013 -0.004633 -0.0026732 -0.0047379 -0.0061986 -0.003983 0.0039055 0.0045161 0.0081935 -0.0087411 0.0015029 -0.004057 -0.0081636 0.0080215 -0.00641 -0.007048 0.001447 0.0021711 0.00054075 0.0087327 0.010467 0.0049841 -0.005699 0.00050766 0.0033937 -0.0079079 0.0030333 -0.0025137 -0.00046275 0.0043524 -0.0057853 -0.0023553 0.0028622 -0.0028822 0.0084752 0.0071952 0.0040027 -0.0026252 0.0014343 0.0022276 0.008861 0.0064044 -0.0074411 0.0088362 -0.0037151 0.0047817 -0.00077906 -0.00052458 0.00027553 -0.0066966 0.0072054 0.0091536 -0.0099697 0.001254 -0.0057033 -0.0034369 0.0073551 0.0078627 -0.0017169 
Vortrag 0.0039039 0.0034396 -0.0048458 -0.0076852 -5.6657e-05 -0.0085332 0.0071944 0.0061653 0.00018184 0.0055976 -0.0041594 -0.0073743 -0.0075755 -0.00563 0.0020875 0.0043084 -0.007885 0.0090437 0.0078192 0.00029812 0.0073791 -0.004369 0.0065151 0.0055161 -0.0045982 0.0018213 0.0086297 0.0017645 0.0056964 -0.0056074 0.0010248 0.00063512 -0.0091204 -0.0047128 0.006083 -0.00241 0.0085027 0.0038093 0.0042566 -0.0057935 -0.0059677 -0.0084906 -2.2931e-05 -0.0042222 -0.0067787 -0.0038181 -0.0079085 0.00631 0.0072719 0.0040222 -0.0080392 0.00067678 -0.0076983 -0.0094759 0.0032519 -0.0047168 0.00091705 0.010403 0.0041486 -0.0036204 -0.0023961 0.00606 0.0061143 -0.0044187 0.00926 0.0092805 -0.0019018 0.0084823 -0.0092107 0.003528 0.0091204 -0.0020237 -0.0069772 0.0084564 -0.0094598 0.0056819 0.0065017 0.0085844 0.0034024 -0.0037888 0.0090879 -0.0038435 -0.0091716 -0.0014785 0.0033113 -0.0022228 -0.0057392 0.0075132 -0.0029127 -0.0012576 0.0072686 -0.0020538 -0.0064654 -0.0013901 -0.00059259 -0.0017615 0.0057332 0.0086978 -6.5361e-05 -0.0090069 
Wohnprojekt -0.0048671 0.0014155 -0.0055103 -0.0055992 -0.0069622 0.004571 -0.0027336 -0.0042009 0.0070782 0.0033843 -0.0039636 0.0088529 0.0034416 0.0084868 -0.00026346 0.00096101 0.0052994 -0.0076293 0.0082366 -0.0081563 -0.0074639 0.0062989 0.0061061 0.0074512 -0.004073 0.0088077 -0.0018292 0.0056902 -0.00083346 0.0056708 0.006987 -0.0036124 0.0081569 0.0053998 0.0042157 0.0053956 0.0025523 0.0087151 -0.0034884 -0.00040581 -0.0030213 -0.0060006 -0.0092042 0.009383 -0.0046202 -0.0040523 0.0073851 0.0085109 -0.0050053 -0.0015125 -0.0075703 -0.0082207 -0.0094473 0.0041715 -0.0049095 0.0026594 0.0089775 -0.0081972 -0.004613 -0.003446 0.0034369 -0.0046848 -0.0066301 0.0032838 0.010043 -0.003491 -0.0064231 0.0029046 -0.0044754 0.009626 0.0019168 -0.0073305 0.0061228 -0.0033219 -0.00044811 -0.0017437 0.0095517 0.0051372 -0.00081962 0.0075148 0.0078459 -0.0037912 -0.0089717 -0.0011363 0.0022498 -7.6981e-05 -0.0088165 -0.00088683 -0.0052969 0.00059832 0.0090611 0.0003767 0.0033837 0.00020741 -0.0041718 0.0054769 0.00075173 -0.0053291 -0.0021918 0.0063268 
Wir 0.0042004 -0.00069669 0.0072567 0.0099201 0.0024983 -0.0091541 -0.0055768 0.0075624 0.0056734 0.0040374 -0.0028849 -0.0069456 -0.0077758 -0.0026508 -0.0086132 0.0015138 -0.0035816 0.0099675 0.006632 0.0089249 -0.0018311 -0.0018527 0.0084773 0.010068 0.0031504 0.0024637 0.0013231 0.0021699 -0.0019487 -0.0056476 -0.0031311 2.0557e-05 -0.0079133 0.0027189 -0.0069248 -0.0044661 -0.0026701 0.0053382 -0.0057399 -0.0029126 -0.0087328 -0.0092287 -0.0099355 0.0013614 0.0053091 0.0072015 0.0091738 -0.0032128 0.0011057 -0.0088429 0.0066989 0.00057326 0.0063038 0.0045033 -0.002889 0.0054496 -0.0063636 0.0077557 -0.0090123 0.0028245 0.0053919 0.010141 -0.006101 0.00489 0.006485 -0.00049608 0.00016643 0.009118 -0.0059254 0.0020015 0.0019758 -0.004745 -0.0048069 0.008392 -0.00063958 0.002984 0.0012956 -0.0070603 -0.0078892 -0.0089287 -0.0066409 -0.0027118 0.0063797 -0.0063147 0.0076385 -0.0057584 -0.0043227 -0.0019919 3.1461e-05 -0.0060067 0.0082707 -0.0070579 0.0039005 -0.0057086 -0.0098006 0.0081318 0.0080901 0.0018316 0.0039064 -0.00039776 
Mo 0.00074154 -0.0069338 -0.0059827 -0.0097759 -0.0038119 -0.008426 -0.0061792 0.0061826 -0.0034033 -0.0070998 0.0095592 0.0067817 -0.0075328 -0.0079807 -0.0091258 0.0036378 -0.004284 -0.00012897 0.0073553 -0.00093068 0.0031346 0.0045689 -0.00080432 -0.006795 0.0034767 0.0082023 0.0075696 0.0052445 0.0090909 -0.00093668 0.0024695 -0.0061358 -0.0010969 8.3924e-05 0.0019158 0.00012259 -0.0019386 0.001328 0.0034385 0.0055141 0.0027854 -0.005277 -0.0074325 0.0034764 0.0026 0.0087858 0.0014375 0.0070335 0.0099791 0.0093146 -0.0066649 0.0097242 -0.0085537 0.0044112 -0.008013 0.0049297 -0.0021437 -0.0075808 0.0068103 -0.0027378 0.0077654 0.0011131 0.0085688 -0.0084028 -0.0075841 0.0096305 -0.0033766 0.0051878 -0.008599 0.001526 -0.0088356 -0.0083479 -0.0091746 -0.0058059 -0.0052624 0.002955 -0.005305 -0.0014474 -7.737e-05 -0.0091389 -0.0093088 0.0084171 -0.0068016 0.00031655 0.0077539 -0.008539 -0.0041549 -0.002852 0.0049547 -0.0032292 -0.0073436 0.0012615 0.0021266 -0.0085227 0.0044824 0.0050083 0.0087848 -5.5692e-05 -0.0067711 0.0076068 
Wilhelma -0.00025976 0.0064123 -0.0059361 0.00079433 -0.0064844 0.0061363 -0.0068463 -0.0054387 -0.0022511 0.0093457 -0.0038028 -0.0033545 -0.0086915 -0.005625 -0.0031658 0.0035896 0.0039584 -0.0034943 -0.0050031 -0.0057622 -0.0061666 0.00075196 0.005862 0.0075843 0.0069372 -0.0027958 -0.0021366 0.0041414 -0.00641 -0.0044111 -0.0021128 0.0033703 -0.0036979 -0.0044104 -0.0055516 0.0086601 0.0017004 0.0037275 -0.0057624 0.0074223 0.0052642 0.0083469 0.0061948 0.0092521 0.0027198 0.0053814 -0.0055983 0.0066466 -0.0071953 -0.00057258 0.0015988 0.0034952 0.0014415 -0.005624 -0.0098281 0.00035555 -0.0013362 0.00067975 -0.0056502 0.0098162 0.00090911 -0.0097757 -0.0022364 -0.0045163 -0.0020906 0.0048387 0.00043835 0.0097504 -0.0023893 0.0029439 -0.0060688 -0.0037012 0.0019081 0.00822 -0.0029007 -0.0026985 -0.0012981 0.00051044 -0.0047746 0.0035328 0.0051937 0.0075404 -0.002363 -0.0020148 -0.0064698 0.0037244 -0.007941 0.000517 0.00301 0.0002829 0.001434 0.0047307 0.0093061 0.0039723 0.0048043 0.00093313 0.0086575 0.0082357 0.0047939 0.0026981 
Suche -0.0013567 0.0064639 -0.0055755 0.0029854 -0.0046382 0.0042612 -0.0066255 0.0049034 -0.0046767 0.001523 -0.0031704 0.0075783 0.005311 0.0045172 -0.006151 0.0030143 0.0044601 -0.0027438 0.0085308 -0.0011855 0.0054467 0.0033141 0.0034466 -0.009388 -0.0087763 0.0049028 -0.0095558 -0.0034093 0.008716 -0.0050849 -0.0041946 -0.0028468 0.009714 0.00085938 -0.0024195 -0.0016641 0.0080016 -0.0093372 0.0031318 -0.0087068 0.0086898 -0.00044701 0.0047907 0.0048038 0.0086391 0.0044637 0.0057791 0.0090342 0.0030241 0.0077364 9.8633e-06 -0.010177 0.0043322 0.0072959 0.0055155 -0.0012687 -0.006185 -0.0021864 0.0012926 0.0044184 0.010832 0.00089247 0.0039239 -0.0049174 0.0041494 0.0080414 0.0027693 0.00021943 -0.010428 0.0074352 0.0036056 0.0022249 0.00019304 0.0084061 0.0065349 0.0024226 0.0099696 -0.0042376 -0.010227 -0.0086067 -0.0042084 0.0018129 -0.00081325 -0.0085667 -0.0021427 -0.0010112 -0.00041336 -0.0029696 0.0080778 -0.0052909 -0.00042494 -0.00027486 -0.001608 -0.0091962 -0.010059 -0.0093221 -0.0076679 0.0031062 0.0025244 -0.0037812 
Ein -0.0031128 0.0021305 0.00546 0.0077957 0.0075004 -0.0041114 -0.0082047 -0.003722 0.0095261 -0.0047929 0.0060783 0.0097262 -0.0065555 -0.0043558 0.0063515 0.0066293 0.0091734 0.0083317 0.0051104 0.0015248 -0.0065977 -0.0085206 0.0031783 0.002018 0.0061768 0.0033605 -0.0072853 0.0080731 -0.0022672 0.0011866 0.0013866 0.0096178 0.0063804 -0.00085654 0.0097858 -0.0014922 -0.00016011 -0.00045366 0.00010174 0.0080198 -0.0093087 -0.0043089 -0.0047424 -0.0083288 -0.0021385 -0.0057899 0.0042558 0.0072458 -0.0035179 -0.0040818 0.00648 0.0036678 0.0040761 -0.003084 -0.0085595 -0.0027699 0.0042207 -0.005648 -0.0046579 0.0084362 0.0095772 0.0010332 -0.0035851 0.0060173 -0.0064035 0.0016594 0.0046526 0.003305 0.0097541 0.0065825 -0.0057978 -0.0025413 0.0075102 -0.00035796 -0.0027454 -0.0042837 -0.00051856 -0.0057929 -0.0010974 0.0035944 -0.0044351 -0.0091499 0.0059174 -0.0012338 -0.0089349 -0.0088664 0.006304 0.0045656 -0.0070508 -0.0082831 0.0082371 -0.0099193 0.0030422 0.0030208 0.0071731 0.0074827 0.0046179 0.0065505 0.0072661 -0.001338 
gegen 0.0018904 0.0095782 -0.0083502 0.0063805 -0.0094375 -0.0029718 -0.00804 0.0029915 -0.0025819 -0.0040703 -0.0090514 0.0091144 -0.00013525 0.0066147 0.0040448 -0.0076645 -0.005796 0.0014225 0.0017184 0.0082003 -0.00084033 0.0038108 0.0037167 0.0053584 -0.0061684 -0.00012068 0.0016511 -0.0044062 -0.00046921 0.0090078 -0.0010359 0.0066698 0.0091808 -0.0063889 0.0052636 0.0070134 -0.0057013 -0.0034679 -0.0041354 0.0069748 0.0017826 -0.00091534 0.0044442 -0.007068 0.0055837 -0.0054373 -0.0063746 -0.0032337 0.00022641 0.0052793 0.0093519 0.0070371 0.0012108 -0.0097433 -0.0033268 -0.009638 0.0058698 -0.0081294 -0.0030532 0.00033393 -0.00034654 -0.0014038 -0.0080045 0.00063211 -0.0061972 -0.003343 -0.0051946 -0.0014036 -0.0028397 -0.00082531 0.00066048 -0.00202 -0.0058717 -0.0080671 0.0031376 -0.0094113 -0.0096272 0.0045773 -0.0081109 0.0039961 -0.00055498 -0.00040986 0.00060734 0.010403 0.0023128 0.0057689 -0.0047708 -0.0032376 0.0081385 0.0092579 0.0067711 0.00045811 0.0022278 0.0085697 -0.00077841 -0.0044292 -0.0046551 -0.0052356 -0.0081822 0.0041696 
neue -1.1324e-05 -0.005451 -0.0037602 0.0073479 -0.0011898 0.00347 0.0058843 -0.0091029 -0.0074962 -0.0010356 -0.0079117 0.0083562 -0.0064613 -0.0020459 0.0051826 0.00086039 0.0064178 0.00029665 0.0099525 0.009483 -0.0017951 0.0036879 0.010255 0.0074795 -0.0036477 -0.001775 -0.00029533 0.006353 0.0020008 -0.0072478 -0.0019939 0.0061747 0.0055959 -0.0074913 0.0060605 -0.0057293 0.0019282 -0.0036732 -0.0019685 0.0087628 -0.0061883 -0.0031381 -0.008706 -0.0061553 -0.0087135 -0.0002149 0.0033039 -0.0086666 -0.0027511 -0.0064478 0.010162 0.0072232 0.0029446 0.0020958 -0.0044992 0.0014801 -0.0049351 -0.0050978 -0.0080683 0.0015854 -0.0061306 0.0098378 -0.0095577 0.0046504 -0.00011188 -0.0049871 0.0005885 0.0020763 0.0035426 0.0036144 -0.0066464 0.0051426 0.0069291 0.005496 -0.0032171 0.0009341 -0.0065264 0.0057237 0.0078496 0.0064638 -0.010229 0.00077399 -0.004279 0.00017751 0.00061392 -0.004528 0.0099315 0.0084927 -0.00014937 -0.0035594 -0.0089324 0.0062052 0.0094478 -0.0095109 -0.0055163 -0.0083154 0.0011933 0.00012814 -0.0028874 -0.0040117 
Uhr: 0.009562 0.0046036 0.0090892 -0.009018 0.0014798 -0.0087268 0.006075 0.0094444 -0.0053975 -0.0018046 0.0022719 0.0049442 0.0084093 -0.0092582 0.0065115 0.0081676 -0.0065478 0.0013168 -0.0034631 -0.002162 -0.00061185 -0.0064832 -0.0051287 0.0021122 -0.0061931 -0.007165 0.0035536 0.0058742 -0.0072061 -0.00081963 -0.0047094 0.010078 0.0039339 0.0073074 -0.0087446 -0.0063496 -0.0099313 -0.001203 -0.0021399 -0.0069842 -0.0051656 -0.00079865 0.004032 -0.0059596 -0.006503 -0.0022211 -0.007095 0.0042822 -0.00039431 -0.0028363 -0.010104 0.0095069 -0.0050098 0.0029998 0.0086801 0.0020211 0.0081738 -0.003219 -0.0039046 0.0038132 -0.0012427 -0.002072 0.0025057 0.0049192 -0.0092187 0.003353 -0.0094059 0.00070316 0.008872 -0.0025246 -0.00012813 0.0034928 0.0055453 0.0077439 0.0044145 -0.0036608 -0.0072266 -0.00521 -0.0056473 -0.0058659 0.0016703 0.0049141 0.0058765 -0.0070443 -0.0025634 -0.0023366 -0.0039796 0.0031244 0.0061858 0.0055561 0.00051247 -0.005861 0.0027731 0.0029136 0.0048538 0.0037118 -0.0021492 -0.0097542 -0.0049097 0.0073656 
Tübinger 0.0028907 0.002324 0.002569 0.0017878 0.0093864 0.0023932 -0.00090729 0.0021663 -0.0066663 -0.007041 0.0071109 -0.0083414 -0.00078837 -0.0034873 0.00010786 -0.0071492 -0.0087139 -0.0094339 0.0096263 0.0091002 -0.0097939 -0.0027073 -0.0023969 -0.0061462 -0.0030934 0.0047175 0.0028133 -0.0031484 -0.0082353 0.0027757 0.007371 -0.0061758 -0.0064963 0.0033247 -0.00062105 -0.001697 0.0048977 -0.0094415 -0.0082486 0.0027089 0.0027535 0.0070306 -0.0043631 0.0028503 -0.0088587 -0.0073432 -0.0073856 0.0088801 0.0089882 0.008214 -0.0078999 0.0047615 0.0050288 -0.00018609 0.0035477 0.0047842 0.0083151 0.0079637 0.006106 0.0078948 -0.0020497 -0.00083271 0.0056724 -0.0056146 -0.0099857 0.0076448 0.0022865 -0.0082491 -0.0064556 -0.0043326 0.0097902 0.0084668 0.0065343 0.0064042 -0.0065341 0.0029903 -0.0057907 -0.0021262 0.0042232 -0.0092186 0.007408 0.0032244 0.003536 -0.0092645 -0.0093907 0.0036281 0.0087002 -0.0034351 0.0085643 -0.0080166 0.0087112 -0.0025796 -0.0068663 -0.0049081 -0.0019856 -0.0066648 -0.0025635 0.0096826 0.006247 -0.0034526 
Veranstaltung -0.0062756 -0.00070626 0.00689 -0.0031173 0.0033541 -0.0012305 -0.0023741 0.0050271 0.0060008 0.0089349 0.00015783 0.0090415 -0.0060097 -0.0034007 0.00068006 0.0081596 -0.0060679 -0.00046193 0.0060346 0.0063997 -0.0040737 0.0086829 -0.0076854 0.0041947 0.0051315 -0.0055762 -0.006521 -0.0080102 0.0072764 0.0026571 0.0086897 0.0088975 -0.00034208 0.0019635 -0.0072738 0.0044925 0.0076857 -0.0023312 -0.0091243 -0.0044941 0.0063858 0.0052454 -0.00047991 0.0083105 -0.002129 0.0076487 0.0022407 -0.0040218 -0.00152 0.0041633 0.0020026 -0.00031695 -0.0037094 -0.0069147 -0.0010153 -0.0042555 0.0074448 -0.0009985 0.0045541 0.0070123 -0.009835 -0.0062658 0.001659 -0.0067041 -0.0021489 -0.0055358 7.1918e-05 0.0027524 0.0045705 0.00053477 -0.0081237 0.0026036 0.0028989 -0.0085599 -0.0070954 0.0022269 0.00049021 -0.0052618 -0.0012057 -0.0043836 0.008826 0.0023535 0.00065119 0.0045034 -0.00035835 0.0087036 0.0046323 0.009623 0.0062378 -0.0078049 0.0010789 0.0030912 0.0081697 0.0055395 0.0097333 0.00019428 -0.0014275 0.0076797 -0.0094844 -0.0086881 
des 0.0011685 -0.0060085 0.00093721 0.0031295 -0.0060868 -0.0039657 0.00036167 0.0043321 -0.002409 0.0023166 -0.0042939 0.004938 0.00024573 0.001536 0.0094131 0.0092863 0.004514 -0.0094411 0.0053889 0.0042577 -0.0003838 -0.0047339 -0.0047836 0.0026857 0.0087549 0.00080945 0.0028226 -0.0022586 -0.0058223 0.0089567 0.0082933 -0.0029802 -0.0044839 -0.0091727 0.002967 0.0037856 0.0092463 0.0036691 0.0073464 0.0069693 0.0053884 -0.0088563 -0.0079117 -0.0018272 0.00095336 0.0070025 -0.0090688 0.0093264 0.0057879 0.00073023 -0.0037502 -0.0024534 0.0076058 0.0093889 0.0046739 -0.0099656 -0.00086235 0.0087788 -0.0019385 -0.0030459 -0.0051656 0.0052564 0.0043713 0.00033019 0.0094243 0.0072774 -0.0051353 0.0050433 -0.0095077 0.0092059 0.0029746 0.0017662 -0.0044253 -0.0011902 0.0072653 0.005356 -0.0045875 -0.00881 -0.0056708 0.0041462 -0.004123 -0.00096881 -0.0073933 0.0070038 -0.0049852 -0.004181 -0.0068748 -0.0097196 0.0045222 -0.0024494 -0.0078257 0.0019473 0.00075671 0.0034167 -0.00067714 -0.0029981 0.0025118 0.0055539 -0.004541 0.0074762 
:: 0.0056307 0.00057813 0.0090519 -0.00058757 0.0023643 0.0077652 -0.00071245 -0.0090405 -0.0062261 -0.0058776 0.009114 0.0047729 0.0062823 -0.004486 0.0049198 0.0037411 -0.0080445 -0.0028361 -0.008559 0.0093172 0.00022885 0.0036113 -0.0057577 -0.0016781 -0.0066716 0.0039802 -0.0062344 -0.0085564 0.0067834 -0.0070084 -0.0068141 0.0022685 0.0063254 -0.0023107 0.0022965 0.0061143 -0.00020942 -0.0066319 -0.0081507 -0.0060676 -0.0071509 0.0067449 -0.0045541 -0.0013209 0.0036561 0.00605 -0.0071053 -0.0051208 -0.008062 0.0088293 -0.006437 -0.0002761 -0.0040979 0.00306 0.0075966 -0.0029139 -0.0027772 -0.0096283 -0.0052 0.0086279 -0.0061505 -0.0088737 -0.0095857 0.0064555 0.0039602 0.0022717 0.002331 -0.00046757 0.00068411 -0.0025568 -0.0084277 -0.0038352 0.0082768 -0.0039383 0.0046361 0.0025167 -0.0099724 -0.0063161 -0.0050291 0.007346 -0.0019066 0.0063508 0.0098016 -0.00933 -0.003528 -0.0020095 0.0028968 -0.0073353 -0.0065745 -0.0036084 0.0052586 0.0051513 0.002727 0.010204 0.0067552 -0.0011622 -0.0096005 0.001543 -0.0090536 0.0098151 
dem -0.0011464 -0.0017788 -0.0081905 0.0021 0.0004389 0.00022528 -0.0087702 -0.00076549 -0.0058517 -0.0076525 0.0071812 -0.00076419 0.0087459 -0.0083099 -0.0039037 0.0039746 0.0042237 -0.0016691 0.00086591 0.00046722 0.00069229 0.0058109 -0.010148 -0.0095403 -0.0052938 0.0084239 -0.0015497 -0.0024264 0.00021449 0.0047206 0.007803 0.0095213 0.0017768 -0.00424 0.0018309 0.0052672 -0.0056931 -0.00074401 0.00054017 0.0095727 -0.0067423 -0.010011 -0.0060506 0.0017146 0.0037178 0.0059151 0.0045598 0.0035094 2.8951e-05 0.00096012 -0.0041558 0.0066743 0.0054061 -0.0050545 0.0075029 -0.0060212 0.0096639 -0.0074829 -0.00021352 -0.0057497 0.0048528 0.006134 -0.0056501 0.00026112 0.0046405 -0.0035686 -0.0010207 0.0031244 0.0082406 -0.0020356 -0.0004168 0.0064157 -0.0094277 -0.0092702 -0.0061606 0.0058669 -0.010038 0.0040793 -0.00082778 0.0097933 -0.0078 0.0019846 -0.0052247 -0.0025811 0.0011922 0.001161 -0.00022348 -0.0077195 -0.0081079 -0.0031672 0.0064936 0.0076814 0.004234 -0.0062538 0.0070614 -0.0051072 0.0076239 0.0054719 0.0088314 0.00036488 
April -0.0015176 -0.0048837 -0.0030754 -0.00095306 -0.0066184 -0.0079472 -0.0022628 -0.0041909 0.0082798 -0.009273 -0.0067749 -0.0037783 -0.0081585 -0.006596 0.0083861 -0.0024944 -0.0042043 0.0010678 0.00092016 -0.0067672 0.0036284 -0.0088467 -0.00032235 0.0091567 0.0061546 -0.001247 -0.0049771 0.00073892 0.0016829 0.0045276 0.0016228 -0.0033387 -0.0067732 0.0033146 -0.0058193 -0.0061041 -0.0047909 0.0052093 -0.0045242 0.0027307 -0.0010075 0.0074585 0.0093954 0.0040243 -0.0096187 0.0048751 0.0080796 -0.0090613 0.0083504 0.0022424 0.0049773 0.0057038 0.00042458 0.0065253 0.0047678 0.0055591 0.0077633 0.0079229 0.0062206 0.010109 -0.0068129 -0.00099724 0.0057174 0.0084873 0.0021696 -0.0020254 0.00078135 0.0010599 0.0059557 -0.0073663 -0.0010107 -0.0080516 0.0091334 -0.0090554 -0.0067129 -0.0075153 0.0026306 -0.0024503 -0.0084541 -0.0051101 -0.005853 0.0055778 -0.0085916 0.001538 0.0080613 0.008828 -0.0062682 0.0070296 -0.0049342 -0.0030912 -0.0023452 -0.0042325 0.0077987 0.0082207 0.0009841 0.0092869 -0.0010554 0.004596 0.00044316 -0.0030318 
Stadtfest 0.0095328 -0.0033627 -0.0091765 -0.004565 -0.0099253 -0.0060085 -0.0031284 -0.0096062 0.0068949 -0.0029702 0.0062274 -0.0054085 0.0082976 -0.0036391 0.0074249 -0.0099909 -0.001889 0.0027716 -0.0084559 -0.0035118 -0.0088225 -0.0024587 -0.0035298 0.0098871 0.0042783 -0.006951 0.0013488 0.0053158 0.0088837 -0.00046735 -0.0089713 -0.002977 0.0034636 -0.0064255 -0.00017012 -0.0032571 0.0091707 -0.0090026 0.008661 0.0049331 0.0019563 0.0098409 0.0048049 -0.0020626 -0.0068003 0.0026365 0.0085668 0.0040691 0.0014249 0.0096183 -0.0083442 -0.0096909 0.0093604 0.0071835 0.0076227 -0.0081419 0.0036483 0.0049929 -0.0029801 0.0095355 -0.0033876 0.0049332 -0.0066731 0.0073599 -0.0014584 0.0074646 -0.0011014 -0.0092705 -0.0043642 0.0052205 -0.0027844 0.0016061 0.0062266 0.0099727 -0.0025315 -0.0067663 0.0088277 -0.0046785 -0.0049843 -0.0030864 0.0033553 -0.0086237 0.0020892 0.0079503 0.0093905 0.0071967 -0.0063224 0.0057254 0.0088134 0.0096941 -0.0015986 -0.0030691 -0.0019941 -0.007832 0.0087141 0.0066925 0.0053873 0.0022787 0.00044885 0.0021074 
Solihausbar -0.0012082 -0.0050545 0.0085208 0.0062865 -0.0046319 -0.0021932 -0.0027915 0.0091559 0.0077303 -0.0034445 -0.007247 -0.0010839 0.0020093 0.0069677 -0.0017742 0.0071622 0.0045135 0.00094416 -0.0042222 -0.0070207 -0.0068993 -0.0052485 0.0059415 -0.0097401 -0.0078048 -0.0060843 -0.0036985 -0.010204 0.0018665 -0.0043066 -0.0041006 -0.0025021 0.0023036 -0.003343 -0.0089073 -0.00063183 0.0068068 -0.007744 0.0056879 -0.0062267 0.0022718 -0.0071545 0.0045384 -0.0056027 -0.0044858 -0.0018859 -0.0054594 0.0084694 0.0010123 5.5446e-05 0.0029626 0.0066984 -0.0018561 0.0036359 -0.0013921 0.00063005 0.0049532 -0.0017964 -0.00078167 -0.001035 -0.0015686 -0.0085255 0.0017546 -0.0020457 0.0051941 0.0041445 0.0037451 0.0091952 0.0098875 0.0054392 -0.0047256 0.0023794 -0.00030724 0.0044594 -0.0039695 -0.0070526 -0.0033351 0.0091781 -0.0033903 0.0042291 0.0038985 -0.0055194 0.0017386 0.0065714 -0.00021393 0.0062306 -0.0032836 0.0016295 0.0061014 -0.0016114 0.0086393 -0.0062559 0.0057873 -0.0090138 -0.0065871 0.0019946 -0.010253 0.0051702 -0.0016879 0.0001611 
Sommerfest 0.0024016 0.0075253 0.0098613 -0.0051244 -0.0091085 -0.0030962 -0.0088476 0.00088337 -0.0047059 -0.0097656 0.0064467 0.0019541 -0.0061057 0.0079324 0.0091159 0.001377 -0.0019899 -0.0014524 -0.00074236 -0.0024354 0.0086106 0.00054569 -0.00026167 0.0005441 -0.0024057 -0.0030731 -0.00027498 -0.0071346 0.008519 0.0064395 0.0030102 -0.0011441 0.0094088 -0.0094952 -0.004801 -0.0078849 0.0073675 -0.0034407 -0.0037872 0.002143 0.0095125 -0.0077796 -0.00021176 -0.0032787 0.006336 -0.0080921 4.0595e-05 -0.00083345 -0.0011018 -0.0091696 -0.0050364 -0.0012258 -0.0087186 -0.003092 0.0066004 0.010104 -0.0025727 0.005486 -0.0065812 0.001025 -0.010147 -0.0046849 0.0068189 -0.00096149 0.0031167 -0.00749 0.0017741 0.0094485 0.0069986 0.00096084 0.0060387 0.0057997 0.0036709 0.0063454 -0.0040907 0.0095343 0.004098 0.00085065 -0.0046367 0.0092034 0.0091953 0.0089676 0.0061509 -0.0071113 -0.0028264 -0.0014741 0.00027346 0.0079758 0.0039172 -0.0054335 -0.0026759 0.0057328 -0.0034492 -0.0029926 0.0096896 -0.0063422 -0.0040891 0.00053924 -0.0073399 -0.0022417 
Schranne -0.005166 0.003646 0.0068978 -0.0083068 -0.0098895 -0.0094894 0.0063939 -0.0021262 -0.0056341 0.0035573 0.0090437 0.0069508 -0.0054482 0.0086125 -0.0036387 0.0053127 0.010231 0.0010177 -0.0079299 -0.0045175 -0.0074158 0.0019483 0.008485 -0.00028234 0.0067154 -0.00082224 -0.00049442 -0.0070239 0.0017717 0.0030969 0.0024571 0.0053167 0.0011324 0.0047831 -0.0062298 0.0066046 -0.0035299 0.0049277 -0.010136 0.0024693 0.0043821 0.0088548 -0.0023196 -0.009502 0.0017042 0.0010436 -0.00020057 -0.0024075 -0.0012876 0.0021435 0.0038724 0.004564 0.0063905 0.0087711 0.0052902 0.00098649 -0.0012791 0.00089209 -0.0070961 0.006543 -0.0057284 0.0014112 0.0033731 -0.0082454 0.0096391 0.005165 0.0015054 -0.0035526 0.0063783 -0.0095081 0.0058338 0.0025238 0.0081787 0.0088537 0.008688 -0.0038777 -0.0030888 0.0041392 -0.0076806 0.0028439 -0.0055911 0.0012881 0.0086454 0.0036397 -0.0055359 0.0023675 -0.001893 -0.0034854 0.0086972 -0.0083882 0.0067085 0.0040363 -0.0067277 0.0052165 0.0057068 0.0051919 0.0095663 0.0011204 0.0023229 -0.0096264 
the -0.0025709 0.0085311 -0.00019753 0.009616 0.0053858 -0.0005411 -0.0093244 -0.0027251 -0.0091402 -0.0059434 0.0015672 -0.0072388 -0.0068689 -0.0054223 0.0085803 0.00062026 -0.009276 -0.0035586 0.0036734 -0.0034315 -0.0019455 0.0085157 0.0091685 0.0077417 0.0030038 -0.001123 -0.00053759 -0.0036678 0.0069785 -0.0052214 0.0090058 4.6144e-05 0.0045708 0.002657 -0.0034785 -0.0078445 0.0062556 0.0083553 0.0079684 -0.003731 0.0011852 0.0030204 0.0071523 0.0018261 -0.0093783 0.0033765 0.0088214 -0.0065772 -0.0063955 -0.0018328 0.0057018 -0.0053409 0.0095976 -0.0076897 0.007199 -0.0076194 -0.00033161 0.0087611 0.0019652 0.0019529 0.0041478 -0.010189 -0.00064354 -0.0053381 -0.0036459 -0.0060189 -0.0071678 -0.0036746 -0.0074056 -0.0046742 0.0033534 0.0062879 0.0048596 -0.0011956 -0.0083807 0.0068824 -0.0090776 -1.1448e-05 0.0049467 -0.0057627 0.0044913 0.0061425 0.0059699 -0.0041689 -0.0019514 -0.0076753 0.0029442 0.0095755 0.00023275 0.0070871 0.0013141 0.0015584 0.0030115 -0.0042613 0.0055194 0.0012236 0.00046263 -0.0021462 -0.0054975 0.0013195 
